{"learner":{"attributes":{"best_iteration":"5","best_score":"3.2569035197879077","scikit_learn":"{\"_estimator_type\": \"regressor\"}"},"feature_names":[],"feature_types":[],"gradient_booster":{"model":{"cats":{"enc":[],"feature_segments":[],"sorted_idx":[]},"gbtree_model_param":{"num_parallel_tree":"1","num_trees":"26"},"iteration_indptr":[0,1,2,3,4,5,6,7,8,9,10,11,12,13,14,15,16,17,18,19,20,21,22,23,24,25,26],"tree_info":[0,0,0,0,0,0,0,0,0,0,0,0,0,0,0,0,0,0,0,0,0,0,0,0,0,0],"trees":[{"base_weights":[-2.090245E-7,2.0465684E0,-1.7395835E0,2.7152777E0,1.0185183E0,-3.1401517E0,-2.631599E-2,1.3541666E-1,2.8758168E-1,2.2716048E0,-7.380954E-1,-3.6410258E0,-2.1750002E0,1.1868685E0,-1.506173E0,-1.2962978E-1,2.9761904E-1,1.5370369E-1,-1.9555557E0,-1.6458335E0,-4.0750003E-1,9.027777E-2,-2.617284E0,-1.4583349E-1,1.7048609E0,8.444443E-1,-3.555556E-1,1.4027777E-1,-1.5972224E-1,-2.7962965E-1,-4.629631E-1,-3.1296298E-1,1.4027777E-1,-3.1620371E0,-1.1458335E0,-1.4629631E0,1.9027777E-1,4.0277768E-2,1.8333332E-1,-2.0972224E-1,2.1041666E-1,-5.9722234E-2,-9.722233E-3,-3.8958335E-1,-1.12962976E-1,1.9027777E-1,-2.7962965E-1,-9.722233E-3,-2.0972224E-1],"categories":[],"categories_nodes":[],"categories_segments":[],"categories_sizes":[],"default_left":[0,0,0,0,0,0,0,0,0,0,0,0,0,0,0,0,0,0,0,0,0,0,0,0,0,0,0,0,0,0,0,0,0,0,0,0,0,0,0,0,0,0,0,0,0,0,0,0,0],"id":0,"left_children":[1,3,5,7,9,11,13,-1,-1,15,17,19,21,23,25,27,-1,-1,29,31,-1,-1,33,35,37,39,-1,-1,-1,-1,41,-1,-1,43,45,47,-1,-1,-1,-1,-1,-1,-1,-1,-1,-1,-1,-1,-1],"loss_changes":[2.6345306E2,2.0608307E1,9.589926E1,4.758911E-1,3.4694496E1,2.7160034E0,3.5899082E1,0E0,0E0,1.5612675E1,2.2394945E1,4.5494385E0,1.5975342E1,7.842252E0,4.63583E1,8.987397E0,0E0,0E0,4.9798374E0,2.248425E1,0E0,0E0,3.5910301E0,1.3576839E1,5.998249E-1,2.2941317E1,0E0,0E0,0E0,0E0,8.9248955E-2,0E0,0E0,4.547394E0,2.544721E1,2.3948045E0,0E0,0E0,0E0,0E0,0E0,0E0,0E0,0E0,0E0,0E0,0E0,0E0,0E0],"parents":[2147483647,0,0,1,1,2,2,3,3,4,4,5,5,6,6,9,9,10,10,11,11,12,12,13,13,14,14,15,15,18,18,19,19,22,22,23,23,24,24,25,25,30,30,33,33,34,34,35,35],"right_children":[2,4,6,8,10,12,14,-1,-1,16,18,20,22,24,26,28,-1,-1,30,32,-1,-1,34,36,38,40,-1,-1,-1,-1,42,-1,-1,44,46,48,-1,-1,-1,-1,-1,-1,-1,-1,-1,-1,-1,-1,-1],"split_conditions":[4E-1,8.833333E-1,6.7331636E-1,8.555238E-1,4E-1,9.3129474E-1,7.6666665E-1,1.3541666E-1,2.8758168E-1,8.8745815E-1,8.8745815E-1,7E-1,7E-1,2E-1,8.5E-1,3.5E-1,2.9761904E-1,1.5370369E-1,1.0485253E0,9.0266556E-1,-4.0750003E-1,9.027777E-2,8.5E-1,9.980006E-1,1.0355085E0,1.0157572E0,-3.555556E-1,1.4027777E-1,-1.5972224E-1,-2.7962965E-1,7E-1,-3.1296298E-1,1.4027777E-1,8.962795E-1,-1.3165848E1,9.9970007E-1,1.9027777E-1,4.0277768E-2,1.8333332E-1,-2.0972224E-1,2.1041666E-1,-5.9722234E-2,-9.722233E-3,-3.8958335E-1,-1.12962976E-1,1.9027777E-1,-2.7962965E-1,-9.722233E-3,-2.0972224E-1],"split_indices":[10,4,2,8,11,8,4,0,0,0,0,10,11,13,10,10,0,0,0,0,0,0,10,2,18,0,0,0,0,0,11,0,0,0,1,0,0,0,0,0,0,0,0,0,0,0,0,0,0],"split_type":[0,0,0,0,0,0,0,0,0,0,0,0,0,0,0,0,0,0,0,0,0,0,0,0,0,0,0,0,0,0,0,0,0,0,0,0,0,0,0,0,0,0,0,0,0,0,0,0,0],"sum_hessian":[7.2E1,3.3E1,3.9E1,1.9E1,1.4E1,2.1E1,1.8E1,3E0,1.6E1,8E0,6E0,1.2E1,9E0,1E1,8E0,2E0,6E0,2E0,4E0,3E0,9E0,1E0,8E0,3E0,7E0,4E0,4E0,1E0,1E0,2E0,2E0,2E0,1E0,5E0,3E0,2E0,1E0,1E0,6E0,1E0,3E0,1E0,1E0,3E0,2E0,1E0,2E0,1E0,1E0],"tree_param":{"num_deleted":"0","num_feature":"53","num_nodes":"49","size_leaf_vector":"1"}},{"base_weights":[-1.0088026E-2,1.8567883E0,-1.5966806E0,2.152987E0,1.1569659E-1,-2.8753095E0,-3.2127455E-2,2.5597215E0,7.653438E-1,2.1309523E-1,-2.6098767E-1,-3.3215528E0,-2.007662E0,1.0858583E0,-1.3949848E0,1.2526041E-1,2.700182E-1,-1.5173613E-1,1.3082104E0,-1.5244215E0,-3.7082502E-1,8.576389E-2,-2.421322E0,-1.3854182E-1,1.5623262E0,7.6013863E-1,-3.2711112E-1,1.7280686E-1,1.7237647E-1,-2.920988E-1,1.3326387E-1,-2.929591E0,-1.053588E0,-1.389815E0,1.8076389E-1,3.826387E-2,1.6761903E-1,-1.9923614E-1,1.9463539E-1,8.2592584E-2,-5.673611E-2,-3.603646E-1,-1.0543209E-1,1.8076389E-1,-2.6098767E-1,-9.236122E-3,-1.9923614E-1],"categories":[],"categories_nodes":[],"categories_segments":[],"categories_sizes":[],"default_left":[0,0,0,0,0,0,0,0,0,0,0,0,0,0,0,0,0,0,0,0,0,0,0,0,0,0,0,0,0,0,0,0,0,0,0,0,0,0,0,0,0,0,0,0,0,0,0],"id":1,"left_children":[1,3,5,7,9,11,13,15,17,-1,-1,19,21,23,25,-1,-1,-1,27,29,-1,-1,31,33,35,37,-1,-1,39,-1,-1,41,43,45,-1,-1,-1,-1,-1,-1,-1,-1,-1,-1,-1,-1,-1],"loss_changes":[2.1918867E2,1.7285011E1,7.9926926E1,1.44086E1,3.8517883E1,1.8494415E0,3.0464207E1,6.5689087E-1,1.1898663E1,0E0,0E0,3.381363E0,1.3929226E1,6.633706E0,3.8876053E1,0E0,0E0,0E0,3.0403461E0,1.9852917E1,0E0,0E0,3.1700058E0,1.22530985E1,4.33218E-1,2.0203129E1,0E0,0E0,1.9189634E0,0E0,0E0,3.784809E0,2.2529293E1,2.1613111E0,0E0,0E0,0E0,0E0,0E0,0E0,0E0,0E0,0E0,0E0,0E0,0E0,0E0],"parents":[2147483647,0,0,1,1,2,2,3,3,4,4,5,5,6,6,7,7,8,8,11,11,12,12,13,13,14,14,18,18,19,19,22,22,23,23,24,24,25,25,28,28,31,31,32,32,33,33],"right_children":[2,4,6,8,10,12,14,16,18,-1,-1,20,22,24,26,-1,-1,-1,28,30,-1,-1,32,34,36,38,-1,-1,40,-1,-1,42,44,46,-1,-1,-1,-1,-1,-1,-1,-1,-1,-1,-1,-1,-1],"split_conditions":[4E-1,1E0,6.7331636E-1,1.425383E1,4E-1,9.3129474E-1,7.6666665E-1,8.555238E-1,5E-2,2.1309523E-1,-2.6098767E-1,7E-1,7E-1,2E-1,8.5E-1,1.2526041E-1,2.700182E-1,-1.5173613E-1,1E0,9.0266556E-1,-3.7082502E-1,8.576389E-2,8.5E-1,9.980006E-1,1.0355085E0,1.0157572E0,-3.2711112E-1,1.7280686E-1,8.8745815E-1,-2.920988E-1,1.3326387E-1,8.962795E-1,-1.3165848E1,9.9970007E-1,1.8076389E-1,3.826387E-2,1.6761903E-1,-1.9923614E-1,1.9463539E-1,8.2592584E-2,-5.673611E-2,-3.603646E-1,-1.0543209E-1,1.8076389E-1,-2.6098767E-1,-9.236122E-3,-1.9923614E-1],"split_indices":[10,4,2,1,11,8,4,8,12,0,0,10,11,13,10,0,0,0,44,0,0,0,10,2,18,0,0,0,0,0,0,0,1,0,0,0,0,0,0,0,0,0,0,0,0,0,0],"split_type":[0,0,0,0,0,0,0,0,0,0,0,0,0,0,0,0,0,0,0,0,0,0,0,0,0,0,0,0,0,0,0,0,0,0,0,0,0,0,0,0,0,0,0,0,0,0,0],"sum_hessian":[7.2E1,3.3E1,3.9E1,2.8E1,5E0,2.1E1,1.8E1,2.1E1,7E0,3E0,2E0,1.2E1,9E0,1E1,8E0,3E0,1.8E1,1E0,6E0,3E0,9E0,1E0,8E0,3E0,7E0,4E0,4E0,4E0,2E0,2E0,1E0,5E0,3E0,2E0,1E0,1E0,6E0,1E0,3E0,1E0,1E0,3E0,2E0,1E0,2E0,1E0,1E0],"tree_param":{"num_deleted":"0","num_feature":"53","num_nodes":"47","size_leaf_vector":"1"}},{"base_weights":[-1.9341417E-2,1.682707E0,-1.4655991E0,1.9529369E0,9.6144915E-2,-2.0206294E0,1.4396341E0,2.3217165E0,6.946754E-1,1.971131E-1,-2.4358848E-1,-2.2573562E-1,-2.7590961E0,6.8342984E-1,1.8359299E0,1.15865886E-1,2.4443753E-1,-1.441493E-1,1.2057699E0,1.9312225E-1,-1.734172E0,-3.179273E0,-1.8529215E0,-8.774305E-3,9.6973516E-2,2.2730136E-2,2.2963722E-1,1.5898232E0,1.6375764E-1,-4.009676E-1,-2.6338336E-1,-1.411688E0,-3.5035285E-1,8.147569E-2,-2.2398589E0,1.9425336E-1,7.071719E-2,7.846296E-2,-5.3899314E-2,7.272055E-2,-1.8927434E-1,-2.7262554E-1,1.2660067E-1,-2.714265E-1,-9.682851E-2],"categories":[],"categories_nodes":[],"categories_segments":[],"categories_sizes":[],"default_left":[0,0,0,0,0,0,0,0,0,0,0,0,0,0,0,0,0,0,0,0,0,0,0,0,0,0,0,0,0,0,0,0,0,0,0,0,0,0,0,0,0,0,0,0,0],"id":2,"left_children":[1,3,5,7,9,11,13,15,17,-1,-1,19,21,23,25,-1,-1,-1,27,-1,29,31,33,-1,-1,-1,-1,35,37,39,-1,41,-1,-1,43,-1,-1,-1,-1,-1,-1,-1,-1,-1,-1],"loss_changes":[1.82163E2,1.4389275E1,6.7408676E1,1.1843773E1,3.328657E1,4.444313E1,8.4303474E-1,3.0631256E-1,1.0472381E1,0E0,0E0,3.9139046E1,3.2471466E0,9.682511E-1,2.440754E0,0E0,0E0,0E0,2.5409727E0,0E0,7.3399467E0,3.651352E0,1.2147179E1,0E0,0E0,0E0,0E0,1.8289566E-1,1.7318646E0,8.108338E0,0E0,1.7531494E1,0E0,0E0,2.8009987E0,0E0,0E0,0E0,0E0,0E0,0E0,0E0,0E0,0E0,0E0],"parents":[2147483647,0,0,1,1,2,2,3,3,4,4,5,5,6,6,7,7,8,8,11,11,12,12,13,13,14,14,18,18,20,20,21,21,22,22,27,27,28,28,29,29,31,31,34,34],"right_children":[2,4,6,8,10,12,14,16,18,-1,-1,20,22,24,26,-1,-1,-1,28,-1,30,32,34,-1,-1,-1,-1,36,38,40,-1,42,-1,-1,44,-1,-1,-1,-1,-1,-1,-1,-1,-1,-1],"split_conditions":[4E-1,1E0,9.909636E-1,1.425383E1,4E-1,-1.17946506E-1,9.9970007E-1,8.555238E-1,5E-2,1.971131E-1,-2.4358848E-1,8.5E-1,9.3129474E-1,2E-1,7E-1,1.15865886E-1,2.4443753E-1,-1.441493E-1,1E0,1.9312225E-1,6E-1,7E-1,7E-1,-8.774305E-3,9.6973516E-2,2.2730136E-2,2.2963722E-1,3.5E-1,8.8745815E-1,7E-1,-2.6338336E-1,9.0266556E-1,-3.5035285E-1,8.147569E-2,8.5E-1,1.9425336E-1,7.071719E-2,7.846296E-2,-5.3899314E-2,7.272055E-2,-1.8927434E-1,-2.7262554E-1,1.2660067E-1,-2.714265E-1,-9.682851E-2],"split_indices":[10,4,2,1,11,19,0,8,12,0,0,10,8,13,11,0,0,0,44,0,4,10,11,0,0,0,0,10,0,11,0,0,0,0,10,0,0,0,0,0,0,0,0,0,0],"split_type":[0,0,0,0,0,0,0,0,0,0,0,0,0,0,0,0,0,0,0,0,0,0,0,0,0,0,0,0,0,0,0,0,0,0,0,0,0,0,0,0,0,0,0,0,0],"sum_hessian":[7.2E1,3.3E1,3.9E1,2.8E1,5E0,3.3E1,6E0,2.1E1,7E0,3E0,2E0,1E1,2.3E1,3E0,3E0,3E0,1.8E1,1E0,6E0,4E0,6E0,1.4E1,9E0,1E0,2E0,1E0,2E0,4E0,2E0,3E0,3E0,3E0,1.1E1,1E0,8E0,2E0,2E0,1E0,1E0,2E0,1E0,2E0,1E0,5E0,3E0],"tree_param":{"num_deleted":"0","num_feature":"53","num_nodes":"45","size_leaf_vector":"1"}},{"base_weights":[-1.9738726E-2,1.5279424E0,-1.3347743E0,1.7750806E0,7.878455E-2,-1.847095E0,1.344323E0,2.1059222E0,6.433809E-1,1.8232962E-1,-2.2734927E-1,-2.2014527E-1,-2.515818E0,6.371367E-1,1.7154287E0,1.0717596E-1,2.2128026E-1,-1.3694184E-1,1.1265548E0,1.7767246E-1,-1.6150315E0,-2.8944376E0,-1.6963072E0,-8.33559E-3,9.0508625E-2,2.159362E-2,2.1432808E-1,1.483835E0,1.5556972E-1,-3.9000928E-1,-2.436296E-1,-1.3070254E0,-3.1823716E0,7.74019E-2,-2.05679E0,1.8130313E-1,6.6002704E-2,7.45398E-2,-5.120435E-2,6.787251E-2,-1.7981063E-1,-2.544505E-1,1.2027063E-1,-1.3771778E-1,-3.4056926E-1,-2.488076E-1,-8.956637E-2],"categories":[],"categories_nodes":[],"categories_segments":[],"categories_sizes":[],"default_left":[0,0,0,0,0,0,0,0,0,0,0,0,0,0,0,0,0,0,0,0,0,0,0,0,0,0,0,0,0,0,0,0,0,0,0,0,0,0,0,0,0,0,0,0,0,0,0],"id":3,"left_children":[1,3,5,7,9,11,13,15,17,-1,-1,19,21,23,25,-1,-1,-1,27,-1,29,31,33,-1,-1,-1,-1,35,37,39,-1,41,43,-1,45,-1,-1,-1,-1,-1,-1,-1,-1,-1,-1,-1,-1],"loss_changes":[1.5061313E2,1.203698E1,5.738539E1,9.503075E0,2.8766697E1,3.6437424E1,7.4412346E-1,6.0112E-2,9.322982E0,0E0,0E0,3.3508934E1,2.5369263E0,8.4766686E-1,2.1034317E0,0E0,0E0,0E0,2.1975555E0,0E0,6.092291E0,2.6966248E0,1.0497097E1,0E0,0E0,0E0,0E0,1.5932274E-1,1.5630076E0,7.239946E0,0E0,1.5483257E1,1.4740753E-1,0E0,2.2785187E0,0E0,0E0,0E0,0E0,0E0,0E0,0E0,0E0,0E0,0E0,0E0,0E0],"parents":[2147483647,0,0,1,1,2,2,3,3,4,4,5,5,6,6,7,7,8,8,11,11,12,12,13,13,14,14,18,18,20,20,21,21,22,22,27,27,28,28,29,29,31,31,32,32,34,34],"right_children":[2,4,6,8,10,12,14,16,18,-1,-1,20,22,24,26,-1,-1,-1,28,-1,30,32,34,-1,-1,-1,-1,36,38,40,-1,42,44,-1,46,-1,-1,-1,-1,-1,-1,-1,-1,-1,-1,-1,-1],"split_conditions":[4E-1,1E0,9.909636E-1,1.425383E1,4E-1,-1.17946506E-1,9.9970007E-1,8.555238E-1,5E-2,1.8232962E-1,-2.2734927E-1,8.5E-1,9.3129474E-1,2E-1,7E-1,1.0717596E-1,2.2128026E-1,-1.3694184E-1,1E0,1.7767246E-1,6E-1,7E-1,7E-1,-8.33559E-3,9.0508625E-2,2.159362E-2,2.1432808E-1,3.5E-1,8.8745815E-1,7E-1,-2.436296E-1,9.0266556E-1,8.886627E-1,7.74019E-2,8.5E-1,1.8130313E-1,6.6002704E-2,7.45398E-2,-5.120435E-2,6.787251E-2,-1.7981063E-1,-2.544505E-1,1.2027063E-1,-1.3771778E-1,-3.4056926E-1,-2.488076E-1,-8.956637E-2],"split_indices":[10,4,2,1,11,19,0,8,12,0,0,10,8,13,11,0,0,0,44,0,4,10,11,0,0,0,0,10,0,11,0,0,0,0,10,0,0,0,0,0,0,0,0,0,0,0,0],"split_type":[0,0,0,0,0,0,0,0,0,0,0,0,0,0,0,0,0,0,0,0,0,0,0,0,0,0,0,0,0,0,0,0,0,0,0,0,0,0,0,0,0,0,0,0,0,0,0],"sum_hessian":[7.2E1,3.3E1,3.9E1,2.8E1,5E0,3.3E1,6E0,2.1E1,7E0,3E0,2E0,1E1,2.3E1,3E0,3E0,3E0,1.8E1,1E0,6E0,4E0,6E0,1.4E1,9E0,1E0,2E0,1E0,2E0,4E0,2E0,3E0,3E0,3E0,1.1E1,1E0,8E0,2E0,2E0,1E0,1E0,2E0,1E0,2E0,1E0,2E0,9E0,5E0,3E0],"tree_param":{"num_deleted":"0","num_feature":"53","num_nodes":"47","size_leaf_vector":"1"}},{"base_weights":[-2.2095047E-2,1.3874171E0,-1.219628E0,1.613509E0,6.340281E-2,-1.6933073E0,1.2553328E0,1.91026E-1,5.957552E-1,1.686549E-1,-2.1219264E-1,-2.1430306E-1,-2.3006296E0,5.9396636E-1,1.6028662E0,-1.3009475E-1,1.0525624E0,1.6345866E-1,-1.5043238E0,-2.645825E0,-1.5527738E0,-7.918811E-3,8.447473E-2,2.051394E-2,2.0003954E-1,1.3849126E0,1.4779122E-1,-3.7899292E-1,-2.253574E-1,-1.209868E0,-2.903992E-1,7.35318E-2,-1.8887082E0,1.6921626E-1,6.1602514E-2,7.081282E-2,-4.8644137E-2,6.3347675E-2,-1.708201E-1,-2.3748712E-1,1.142571E-1,-2.7972317E-1,-1.2295257E-1],"categories":[],"categories_nodes":[],"categories_segments":[],"categories_sizes":[],"default_left":[0,0,0,0,0,0,0,0,0,0,0,0,0,0,0,0,0,0,0,0,0,0,0,0,0,0,0,0,0,0,0,0,0,0,0,0,0,0,0,0,0,0,0],"id":4,"left_children":[1,3,5,7,9,11,13,-1,15,-1,-1,17,19,21,23,-1,25,-1,27,29,31,-1,-1,-1,-1,33,35,37,-1,39,-1,-1,41,-1,-1,-1,-1,-1,-1,-1,-1,-1,-1],"loss_changes":[1.2491153E2,1.0075569E1,4.901918E1,7.620514E0,2.4861382E1,3.0046867E1,6.568804E-1,0E0,8.300747E0,0E0,0E0,2.8695114E1,2.0873795E0,7.421509E-1,1.8121891E0,0E0,1.900228E0,0E0,5.04799E0,2.0473022E0,9.075289E0,0E0,0E0,0E0,0E0,1.3878822E-1,1.4106148E0,6.4652367E0,0E0,1.3675856E1,0E0,0E0,1.9506798E0,0E0,0E0,0E0,0E0,0E0,0E0,0E0,0E0,0E0,0E0],"parents":[2147483647,0,0,1,1,2,2,3,3,4,4,5,5,6,6,8,8,11,11,12,12,13,13,14,14,16,16,18,18,19,19,20,20,25,25,26,26,27,27,29,29,32,32],"right_children":[2,4,6,8,10,12,14,-1,16,-1,-1,18,20,22,24,-1,26,-1,28,30,32,-1,-1,-1,-1,34,36,38,-1,40,-1,-1,42,-1,-1,-1,-1,-1,-1,-1,-1,-1,-1],"split_conditions":[4E-1,1E0,9.909636E-1,1.425383E1,4E-1,-1.17946506E-1,9.9970007E-1,1.91026E-1,5E-2,1.686549E-1,-2.1219264E-1,8.5E-1,9.3129474E-1,2E-1,7E-1,-1.3009475E-1,1E0,1.6345866E-1,6E-1,7E-1,7E-1,-7.918811E-3,8.447473E-2,2.051394E-2,2.0003954E-1,3.5E-1,8.8745815E-1,7E-1,-2.253574E-1,9.0266556E-1,-2.903992E-1,7.35318E-2,8.8745815E-1,1.6921626E-1,6.1602514E-2,7.081282E-2,-4.8644137E-2,6.3347675E-2,-1.708201E-1,-2.3748712E-1,1.142571E-1,-2.7972317E-1,-1.2295257E-1],"split_indices":[10,4,2,1,11,19,0,0,12,0,0,10,8,13,11,0,44,0,4,10,11,0,0,0,0,10,0,11,0,0,0,0,0,0,0,0,0,0,0,0,0,0,0],"split_type":[0,0,0,0,0,0,0,0,0,0,0,0,0,0,0,0,0,0,0,0,0,0,0,0,0,0,0,0,0,0,0,0,0,0,0,0,0,0,0,0,0,0,0],"sum_hessian":[7.2E1,3.3E1,3.9E1,2.8E1,5E0,3.3E1,6E0,2.1E1,7E0,3E0,2E0,1E1,2.3E1,3E0,3E0,1E0,6E0,4E0,6E0,1.4E1,9E0,1E0,2E0,1E0,2E0,4E0,2E0,3E0,3E0,3E0,1.1E1,1E0,8E0,2E0,2E0,1E0,1E0,2E0,1E0,2E0,1E0,2E0,6E0],"tree_param":{"num_deleted":"0","num_feature":"53","num_nodes":"43","size_leaf_vector":"1"}},{"base_weights":[-2.4606908E-2,1.2566276E0,-1.113041E0,1.4629828E0,4.9806196E-2,-1.5508044E0,1.1722438E0,1.7279168E0,5.5154127E-1,1.5600578E-1,-1.9804646E-1,-2.0827016E-1,-2.1015158E0,5.537088E-1,1.497718E0,8.481081E-2,1.8221967E-1,-1.23590015E-1,9.834472E-1,1.5038197E-1,-1.4014385E0,-1.2441312E0,-2.3181922E0,-7.5228694E-3,7.884309E-2,1.948824E-2,1.8670358E-1,1.2925851E0,1.4040168E-1,2.6153637E-2,-1.7221904E0,-5.8592785E-2,-1.9264263E-1,-2.9522845E-1,-1.5156897E0,1.5793519E-1,5.7495672E-2,6.727219E-2,-4.6211936E-2,-6.6497326E-2,-2.0845556E-1,-2.1000843E-1,1.8719307E-1],"categories":[],"categories_nodes":[],"categories_segments":[],"categories_sizes":[],"default_left":[0,0,0,0,0,0,0,0,0,0,0,0,0,0,0,0,0,0,0,0,0,0,0,0,0,0,0,0,0,0,0,0,0,0,0,0,0,0,0,0,0,0,0],"id":5,"left_children":[1,3,5,7,9,11,13,15,17,-1,-1,19,21,23,25,-1,-1,-1,27,-1,29,31,33,-1,-1,-1,-1,35,37,-1,39,-1,-1,-1,41,-1,-1,-1,-1,-1,-1,-1,-1],"loss_changes":[1.0320004E2,8.394287E0,4.183448E1,6.0496635E0,2.1486958E1,2.4700172E1,5.7992077E-1,2.7944183E-1,7.3914948E0,0E0,0E0,2.4578436E1,1.5744705E0,6.498146E-1,1.5607891E0,0E0,0E0,0E0,1.6428404E0,0E0,4.184231E0,2.0148754E0,4.684746E0,0E0,0E0,0E0,0E0,1.20900154E-1,1.27308E0,0E0,9.124203E-1,0E0,0E0,0E0,2.3728283E1,0E0,0E0,0E0,0E0,0E0,0E0,0E0,0E0],"parents":[2147483647,0,0,1,1,2,2,3,3,4,4,5,5,6,6,7,7,8,8,11,11,12,12,13,13,14,14,18,18,20,20,21,21,22,22,27,27,28,28,30,30,34,34],"right_children":[2,4,6,8,10,12,14,16,18,-1,-1,20,22,24,26,-1,-1,-1,28,-1,30,32,34,-1,-1,-1,-1,36,38,-1,40,-1,-1,-1,42,-1,-1,-1,-1,-1,-1,-1,-1],"split_conditions":[4E-1,1E0,9.909636E-1,1.425383E1,4E-1,-1.17946506E-1,9.9970007E-1,8.555238E-1,5E-2,1.5600578E-1,-1.9804646E-1,8.5E-1,1.0621936E0,2E-1,7E-1,8.481081E-2,1.8221967E-1,-1.23590015E-1,1E0,1.5038197E-1,4.3333334E-1,7.5E-1,8.5E-1,-7.5228694E-3,7.884309E-2,1.948824E-2,1.8670358E-1,3.5E-1,8.8745815E-1,2.6153637E-2,6E-1,-5.8592785E-2,-1.9264263E-1,-2.9522845E-1,5.164735E-1,1.5793519E-1,5.7495672E-2,6.727219E-2,-4.6211936E-2,-6.6497326E-2,-2.0845556E-1,-2.1000843E-1,1.8719307E-1],"split_indices":[10,4,2,1,11,19,0,8,12,0,0,10,18,13,11,0,0,0,44,0,4,10,10,0,0,0,0,10,0,0,4,0,0,0,25,0,0,0,0,0,0,0,0],"split_type":[0,0,0,0,0,0,0,0,0,0,0,0,0,0,0,0,0,0,0,0,0,0,0,0,0,0,0,0,0,0,0,0,0,0,0,0,0,0,0,0,0,0,0],"sum_hessian":[7.2E1,3.3E1,3.9E1,2.8E1,5E0,3.3E1,6E0,2.1E1,7E0,3E0,2E0,1E1,2.3E1,3E0,3E0,3E0,1.8E1,1E0,6E0,4E0,6E0,6E0,1.7E1,1E0,2E0,1E0,2E0,4E0,2E0,1E0,5E0,4E0,2E0,8E0,9E0,2E0,2E0,1E0,1E0,2E0,3E0,8E0,1E0],"tree_param":{"num_deleted":"0","num_feature":"53","num_nodes":"43","size_leaf_vector":"1"}},{"base_weights":[-2.28625E-2,1.1409029E0,-1.0114915E0,1.3297857E0,3.781883E-2,-1.415362E0,1.094664E0,1.567263E0,5.104998E-1,1.4430533E-1,-1.8484335E-1,-1.963902E-1,-1.915084E0,5.16168E-1,1.399494E0,1.6781561E0,8.5459536E-1,-1.1741052E-1,9.1888696E-1,1.383514E-1,-1.2968374E0,-2.2057498E0,-1.2875772E0,-7.146716E-3,7.358687E-2,1.8513823E-2,1.7425667E-1,6.973334E-2,1.7571756E-1,9.6599616E-2,2.0449614E-2,1.2064128E0,1.3338153E-1,2.4845958E-2,-1.5957968E0,-9.574261E-1,-2.438045E0,8.0355644E-2,-1.6092093E0,1.4740616E-1,5.3662635E-2,6.390858E-2,-4.390135E-2,-6.206417E-2,-1.928214E-1,-2.0197275E-1,1.11473896E-1,-9.517609E-2,-2.6401258E-1,-1.9850025E-1,-6.432175E-2],"categories":[],"categories_nodes":[],"categories_segments":[],"categories_sizes":[],"default_left":[0,0,0,0,0,0,0,0,0,0,0,0,0,0,0,0,0,0,0,0,0,0,0,0,0,0,0,0,0,0,0,0,0,0,0,0,0,0,0,0,0,0,0,0,0,0,0,0,0,0,0],"id":6,"left_children":[1,3,5,7,9,11,13,15,17,-1,-1,19,21,23,25,27,29,-1,31,-1,33,35,37,-1,-1,-1,-1,-1,-1,-1,-1,39,41,-1,43,45,47,-1,49,-1,-1,-1,-1,-1,-1,-1,-1,-1,-1,-1,-1],"loss_changes":[8.514287E1,7.0337334E0,3.557391E1,4.842205E0,1.857115E1,2.0334892E1,5.120268E-1,3.0451202E-1,6.5826387E0,0E0,0E0,2.0918804E1,1.5373993E0,5.690061E-1,1.343832E0,1.6973495E-1,1.6456532E-1,0E0,1.4200587E0,0E0,3.6303577E0,2.0154495E0,8.01885E0,0E0,0E0,0E0,0E0,0E0,0E0,0E0,0E0,1.0531759E-1,1.148955E0,0E0,7.482195E-1,1.1056523E1,1.091423E0,0E0,1.9903278E0,0E0,0E0,0E0,0E0,0E0,0E0,0E0,0E0,0E0,0E0,0E0,0E0],"parents":[2147483647,0,0,1,1,2,2,3,3,4,4,5,5,6,6,7,7,8,8,11,11,12,12,13,13,14,14,15,15,16,16,18,18,20,20,21,21,22,22,31,31,32,32,34,34,35,35,36,36,38,38],"right_children":[2,4,6,8,10,12,14,16,18,-1,-1,20,22,24,26,28,30,-1,32,-1,34,36,38,-1,-1,-1,-1,-1,-1,-1,-1,40,42,-1,44,46,48,-1,50,-1,-1,-1,-1,-1,-1,-1,-1,-1,-1,-1,-1],"split_conditions":[4E-1,1E0,9.909636E-1,1.425383E1,4E-1,-1.17946506E-1,9.9970007E-1,1E0,5E-2,1.4430533E-1,-1.8484335E-1,8.5E-1,9.3129474E-1,2E-1,7E-1,8.555238E-1,1.0490025E0,-1.1741052E-1,1E0,1.383514E-1,4.3333334E-1,7E-1,7E-1,-7.146716E-3,7.358687E-2,1.8513823E-2,1.7425667E-1,6.973334E-2,1.7571756E-1,9.6599616E-2,2.0449614E-2,3.5E-1,8.8745815E-1,2.4845958E-2,6E-1,9.0266556E-1,8.886627E-1,8.0355644E-2,8.5E-1,1.4740616E-1,5.3662635E-2,6.390858E-2,-4.390135E-2,-6.206417E-2,-1.928214E-1,-2.0197275E-1,1.11473896E-1,-9.517609E-2,-2.6401258E-1,-1.9850025E-1,-6.432175E-2],"split_indices":[10,4,2,1,11,19,0,44,12,0,0,10,8,13,11,8,0,0,44,0,4,10,11,0,0,0,0,0,0,0,0,10,0,0,4,0,0,0,10,0,0,0,0,0,0,0,0,0,0,0,0],"split_type":[0,0,0,0,0,0,0,0,0,0,0,0,0,0,0,0,0,0,0,0,0,0,0,0,0,0,0,0,0,0,0,0,0,0,0,0,0,0,0,0,0,0,0,0,0,0,0,0,0,0,0],"sum_hessian":[7.2E1,3.3E1,3.9E1,2.8E1,5E0,3.3E1,6E0,2.1E1,7E0,3E0,2E0,1E1,2.3E1,3E0,3E0,1.7E1,4E0,1E0,6E0,4E0,6E0,1.4E1,9E0,1E0,2E0,1E0,2E0,2E0,1.5E1,3E0,1E0,4E0,2E0,1E0,5E0,3E0,1.1E1,1E0,8E0,2E0,2E0,1E0,1E0,2E0,3E0,2E0,1E0,2E0,9E0,5E0,3E0],"tree_param":{"num_deleted":"0","num_feature":"53","num_nodes":"51","size_leaf_vector":"1"}},{"base_weights":[-2.1110496E-2,1.0393312E0,-9.2195815E-1,1.2128819E0,2.7280727E-2,-1.2951152E0,1.0222276E0,1.4270141E0,4.72408E-1,1.3348244E-1,-1.7252044E-1,-1.8508647E-1,-1.7499154E0,4.8116124E-1,1.3077372E0,1.5239768E0,7.925457E-1,-1.1153998E-1,8.585805E-1,1.2728328E-1,-1.2000164E0,-2.015154E0,-1.1770661E0,-6.7893746E-3,6.868108E-2,1.7588139E-2,1.6263954E-1,6.508446E-2,1.5924406E-1,8.935465E-2,1.9427134E-2,1.256546E-1,2.4597001E-1,2.3603654E-2,-1.478698E0,-8.843081E-1,-2.2241728E0,7.633787E-2,-1.4774909E0,1.2425079E-1,-5.003786E-2,-5.792656E-2,-1.7835979E-1,-1.8850788E-1,1.0590019E-1,-8.8831015E-2,-2.4025145E-1,-2.3547299E-1,-8.904613E-2],"categories":[],"categories_nodes":[],"categories_segments":[],"categories_sizes":[],"default_left":[0,0,0,0,0,0,0,0,0,0,0,0,0,0,0,0,0,0,0,0,0,0,0,0,0,0,0,0,0,0,0,0,0,0,0,0,0,0,0,0,0,0,0,0,0,0,0,0,0],"id":7,"left_children":[1,3,5,7,9,11,13,15,17,-1,-1,19,21,23,25,27,29,-1,31,-1,33,35,37,-1,-1,-1,-1,-1,-1,-1,-1,-1,39,-1,41,43,45,-1,47,-1,-1,-1,-1,-1,-1,-1,-1,-1,-1],"loss_changes":[7.0694855E1,5.9387436E0,3.034338E1,3.9240875E0,1.6051552E1,1.684071E1,4.5212507E-1,1.4561844E-1,5.8630023E0,0E0,0E0,1.7803967E1,1.2746277E0,4.982819E-1,1.1566477E0,3.9569855E-2,1.2854004E-1,0E0,1.397512E0,0E0,3.1504364E0,1.5786705E0,6.9574614E0,0E0,0E0,0E0,0E0,0E0,0E0,0E0,0E0,0E0,3.5967832E0,0E0,6.122446E-1,9.775533E0,7.246971E-1,0E0,2.5378933E0,0E0,0E0,0E0,0E0,0E0,0E0,0E0,0E0,0E0,0E0],"parents":[2147483647,0,0,1,1,2,2,3,3,4,4,5,5,6,6,7,7,8,8,11,11,12,12,13,13,14,14,15,15,16,16,18,18,20,20,21,21,22,22,32,32,34,34,35,35,36,36,38,38],"right_children":[2,4,6,8,10,12,14,16,18,-1,-1,20,22,24,26,28,30,-1,32,-1,34,36,38,-1,-1,-1,-1,-1,-1,-1,-1,-1,40,-1,42,44,46,-1,48,-1,-1,-1,-1,-1,-1,-1,-1,-1,-1],"split_conditions":[4E-1,1E0,9.909636E-1,1.425383E1,4E-1,-1.17946506E-1,9.9970007E-1,1E0,5E-2,1.3348244E-1,-1.7252044E-1,8.5E-1,9.3129474E-1,2E-1,7E-1,8.555238E-1,1.0490025E0,-1.1153998E-1,8.8745815E-1,1.2728328E-1,4.3333334E-1,7E-1,7E-1,-6.7893746E-3,6.868108E-2,1.7588139E-2,1.6263954E-1,6.508446E-2,1.5924406E-1,8.935465E-2,1.9427134E-2,1.256546E-1,3.5E-1,2.3603654E-2,6E-1,9.0266556E-1,8.886627E-1,7.633787E-2,8.8745815E-1,1.2425079E-1,-5.003786E-2,-5.792656E-2,-1.7835979E-1,-1.8850788E-1,1.0590019E-1,-8.8831015E-2,-2.4025145E-1,-2.3547299E-1,-8.904613E-2],"split_indices":[10,4,2,1,11,19,0,44,12,0,0,10,8,13,11,8,0,0,0,0,4,10,11,0,0,0,0,0,0,0,0,0,10,0,4,0,0,0,0,0,0,0,0,0,0,0,0,0,0],"split_type":[0,0,0,0,0,0,0,0,0,0,0,0,0,0,0,0,0,0,0,0,0,0,0,0,0,0,0,0,0,0,0,0,0,0,0,0,0,0,0,0,0,0,0,0,0,0,0,0,0],"sum_hessian":[7.2E1,3.3E1,3.9E1,2.8E1,5E0,3.3E1,6E0,2.1E1,7E0,3E0,2E0,1E1,2.3E1,3E0,3E0,1.7E1,4E0,1E0,6E0,4E0,6E0,1.4E1,9E0,1E0,2E0,1E0,2E0,2E0,1.5E1,3E0,1E0,3E0,3E0,1E0,5E0,3E0,1.1E1,1E0,8E0,1E0,2E0,2E0,3E0,2E0,1E0,2E0,9E0,2E0,6E0],"tree_param":{"num_deleted":"0","num_feature":"53","num_nodes":"49","size_leaf_vector":"1"}},{"base_weights":[-2.0653559E-2,9.466451E-1,-8.4234107E-1,1.1061261E0,1.804638E-2,-1.1875235E0,9.545933E-1,1.2994541E0,4.3620807E-1,1.2347126E-1,-1.6101907E-1,-1.7434125E-1,-1.6024184E0,4.4851792E-1,1.2220204E0,1.5646203E-1,9.9552214E-2,-1.0596299E-1,8.012749E-1,1.1710063E-1,-1.1103979E0,-8.417418E-1,-1.7582943E0,-6.449914E-3,6.410234E-2,1.6708732E-2,1.517969E-1,1.0608808E0,1.0150687E-1,2.2423482E-2,-1.3702091E0,7.355951E-2,-1.814309E-1,-2.6160857E-1,-1.265077E0,1.292489E-1,4.7564555E-2,5.4430414E-2,-3.9204385E-2,-5.406478E-2,-1.6498278E-1,-1.5167956E-1,-2.565815E-2],"categories":[],"categories_nodes":[],"categories_segments":[],"categories_sizes":[],"default_left":[0,0,0,0,0,0,0,0,0,0,0,0,0,0,0,0,0,0,0,0,0,0,0,0,0,0,0,0,0,0,0,0,0,0,0,0,0,0,0,0,0,0,0],"id":8,"left_children":[1,3,5,7,9,11,13,15,17,-1,-1,19,21,23,25,-1,-1,-1,27,-1,29,31,33,-1,-1,-1,-1,35,37,-1,39,-1,-1,-1,41,-1,-1,-1,-1,-1,-1,-1,-1],"loss_changes":[5.8819057E1,5.0152264E0,2.5944403E1,3.1890717E0,1.3874249E1,1.401302E1,3.9926958E-1,2.1541977E-1,5.217702E0,0E0,0E0,1.515282E1,1.3656769E0,4.3637967E-1,9.9519014E-1,0E0,0E0,0E0,1.1639605E0,0E0,2.7345161E0,1.0538994E1,4.728924E0,0E0,0E0,0E0,0E0,6.296015E-2,8.690198E-1,0E0,4.9978924E-1,0E0,0E0,0E0,3.1648178E0,0E0,0E0,0E0,0E0,0E0,0E0,0E0,0E0],"parents":[2147483647,0,0,1,1,2,2,3,3,4,4,5,5,6,6,7,7,8,8,11,11,12,12,13,13,14,14,18,18,20,20,21,21,22,22,27,27,28,28,30,30,34,34],"right_children":[2,4,6,8,10,12,14,16,18,-1,-1,20,22,24,26,-1,-1,-1,28,-1,30,32,34,-1,-1,-1,-1,36,38,-1,40,-1,-1,-1,42,-1,-1,-1,-1,-1,-1,-1,-1],"split_conditions":[4E-1,1E0,9.909636E-1,1.425383E1,4E-1,-1.17946506E-1,9.9970007E-1,1.0085711E0,5E-2,1.2347126E-1,-1.6101907E-1,8.5E-1,7E-1,2E-1,7E-1,1.5646203E-1,9.9552214E-2,-1.0596299E-1,1E0,1.1710063E-1,4.3333334E-1,8.886627E-1,2.577514E-1,-6.449914E-3,6.410234E-2,1.6708732E-2,1.517969E-1,3.5E-1,8.8745815E-1,2.2423482E-2,6E-1,7.355951E-2,-1.814309E-1,-2.6160857E-1,8.5E-1,1.292489E-1,4.7564555E-2,5.4430414E-2,-3.9204385E-2,-5.406478E-2,-1.6498278E-1,-1.5167956E-1,-2.565815E-2],"split_indices":[10,4,2,1,11,19,0,0,12,0,0,10,11,13,11,0,0,0,44,0,4,0,2,0,0,0,0,10,0,0,4,0,0,0,10,0,0,0,0,0,0,0,0],"split_type":[0,0,0,0,0,0,0,0,0,0,0,0,0,0,0,0,0,0,0,0,0,0,0,0,0,0,0,0,0,0,0,0,0,0,0,0,0,0,0,0,0,0,0],"sum_hessian":[7.2E1,3.3E1,3.9E1,2.8E1,5E0,3.3E1,6E0,2.1E1,7E0,3E0,2E0,1E1,2.3E1,3E0,3E0,9E0,1.2E1,1E0,6E0,4E0,6E0,5E0,1.8E1,1E0,2E0,1E0,2E0,4E0,2E0,1E0,5E0,2E0,3E0,5E0,1.3E1,2E0,2E0,1E0,1E0,2E0,3E0,1E1,3E0],"tree_param":{"num_deleted":"0","num_feature":"53","num_nodes":"43","size_leaf_vector":"1"}},{"base_weights":[-1.9898307E-2,8.6093783E-1,-7.681116E-1,1.0073098E0,9.983699E-3,-1.0871929E0,8.914423E-1,1.1811459E0,4.0334678E-1,1.1421092E-1,-1.5028448E-1,-1.6413654E-1,-1.4649607E0,4.1807926E-1,1.1419448E0,1.4238048E-1,9.036278E-2,-1.00664854E-1,7.485816E-1,1.0773257E-1,-1.0274472E0,-7.7554613E-1,-1.6055673E0,-6.127429E-3,5.9828855E-2,1.5873289E-2,1.4167711E-1,1.1044939E-1,2.0552397E-1,2.1302318E-2,-1.2696961E0,6.865556E-2,-1.678236E-1,-2.3980784E-1,-1.1512363E0,1.115758E-1,-4.6980668E-2,-6.445902E-2,-1.6799389E-1,-1.3789052E-1,-2.373379E-2],"categories":[],"categories_nodes":[],"categories_segments":[],"categories_sizes":[],"default_left":[0,0,0,0,0,0,0,0,0,0,0,0,0,0,0,0,0,0,0,0,0,0,0,0,0,0,0,0,0,0,0,0,0,0,0,0,0,0,0,0,0],"id":9,"left_children":[1,3,5,7,9,11,13,15,17,-1,-1,19,21,23,25,-1,-1,-1,27,-1,29,31,33,-1,-1,-1,-1,-1,35,-1,37,-1,-1,-1,39,-1,-1,-1,-1,-1,-1],"loss_changes":[4.8772182E1,4.22484E0,2.2150476E1,2.5683174E0,1.1992682E1,1.1615383E1,3.5262632E-1,1.9493866E-1,4.6477947E0,0E0,0E0,1.2896339E1,1.0812759E0,3.821956E-1,8.559618E-1,0E0,0E0,0E0,1.1259663E0,0E0,2.3739934E0,9.071147E0,4.080433E0,0E0,0E0,0E0,0E0,0E0,2.9830263E0,0E0,4.5579815E-1,0E0,0E0,0E0,2.585661E0,0E0,0E0,0E0,0E0,0E0,0E0],"parents":[2147483647,0,0,1,1,2,2,3,3,4,4,5,5,6,6,7,7,8,8,11,11,12,12,13,13,14,14,18,18,20,20,21,21,22,22,28,28,30,30,34,34],"right_children":[2,4,6,8,10,12,14,16,18,-1,-1,20,22,24,26,-1,-1,-1,28,-1,30,32,34,-1,-1,-1,-1,-1,36,-1,38,-1,-1,-1,40,-1,-1,-1,-1,-1,-1],"split_conditions":[4E-1,1E0,9.909636E-1,1.425383E1,4E-1,-1.17946506E-1,9.9970007E-1,1.0085711E0,5E-2,1.1421092E-1,-1.5028448E-1,8.5E-1,7E-1,2E-1,7E-1,1.4238048E-1,9.036278E-2,-1.00664854E-1,8.8745815E-1,1.0773257E-1,4.3333334E-1,8.886627E-1,2.577514E-1,-6.127429E-3,5.9828855E-2,1.5873289E-2,1.4167711E-1,1.1044939E-1,3.5E-1,2.1302318E-2,7E-1,6.865556E-2,-1.678236E-1,-2.3980784E-1,8.5E-1,1.115758E-1,-4.6980668E-2,-6.445902E-2,-1.6799389E-1,-1.3789052E-1,-2.373379E-2],"split_indices":[10,4,2,1,11,19,0,0,12,0,0,10,11,13,11,0,0,0,0,0,4,0,2,0,0,0,0,0,10,0,11,0,0,0,10,0,0,0,0,0,0],"split_type":[0,0,0,0,0,0,0,0,0,0,0,0,0,0,0,0,0,0,0,0,0,0,0,0,0,0,0,0,0,0,0,0,0,0,0,0,0,0,0,0,0],"sum_hessian":[7.2E1,3.3E1,3.9E1,2.8E1,5E0,3.3E1,6E0,2.1E1,7E0,3E0,2E0,1E1,2.3E1,3E0,3E0,9E0,1.2E1,1E0,6E0,4E0,6E0,5E0,1.8E1,1E0,2E0,1E0,2E0,3E0,3E0,1E0,5E0,2E0,3E0,5E0,1.3E1,1E0,2E0,3E0,2E0,1E1,3E0],"tree_param":{"num_deleted":"0","num_feature":"53","num_nodes":"41","size_leaf_vector":"1"}},{"base_weights":[-1.9575842E-2,7.828161E-1,-7.011196E-1,9.1716933E-1,2.9729207E-3,-9.962389E-1,8.324769E-1,1.0736105E0,3.7230968E-1,1.0564508E-1,-1.4026552E-1,-1.5712458E-1,-1.339323E0,3.8969672E-1,1.0671378E0,1.2956622E0,8.2021624E-2,-9.56316E-2,6.9872993E-1,9.9113956E-2,-9.548668E-1,-1.5613104E0,-8.724096E-1,-5.8210613E-3,5.5840272E-2,1.50796175E-2,1.3223197E-1,1.3534926E-1,3.875942E-2,9.3305665E-1,7.527542E-2,-2.1915424E-1,-1.4518629E-1,-5.4639006E-1,-1.769508E0,-1.44436E0,-1.1587143E-2,1.1323147E-1,4.2277973E-2,4.6186425E-2,-3.489511E-2,6.534726E-2,-1.4185174E-1,-1.4957446E-1,1.1508367E-1,-7.093556E-2,-1.9106029E-1,-2.0679632E-1,-1.3143604E-2,1.8797138E-1,-9.5434085E-2],"categories":[],"categories_nodes":[],"categories_segments":[],"categories_sizes":[],"default_left":[0,0,0,0,0,0,0,0,0,0,0,0,0,0,0,0,0,0,0,0,0,0,0,0,0,0,0,0,0,0,0,0,0,0,0,0,0,0,0,0,0,0,0,0,0,0,0,0,0,0,0],"id":10,"left_children":[1,3,5,7,9,11,13,15,17,-1,-1,19,21,23,25,27,-1,-1,29,-1,31,33,35,-1,-1,-1,-1,-1,-1,37,39,41,-1,43,45,47,49,-1,-1,-1,-1,-1,-1,-1,-1,-1,-1,-1,-1,-1,-1],"loss_changes":[4.047001E1,3.5596046E0,1.8933102E1,2.0721989E0,1.0366625E1,9.577713E0,3.1146288E-1,1.751442E-1,4.1377287E0,0E0,0E0,1.10226145E1,1.1254692E0,3.3476353E-1,7.359338E-1,5.340576E-4,0E0,0E0,9.524081E-1,0E0,2.2413402E0,2.2027168E0,4.906742E0,0E0,0E0,0E0,0E0,0E0,0E0,2.966404E-2,6.531717E-1,5.113348E0,0E0,8.166437E0,4.3968964E-1,4.6406555E0,1.0709042E1,0E0,0E0,0E0,0E0,0E0,0E0,0E0,0E0,0E0,0E0,0E0,0E0,0E0,0E0],"parents":[2147483647,0,0,1,1,2,2,3,3,4,4,5,5,6,6,7,7,8,8,11,11,12,12,13,13,14,14,15,15,18,18,20,20,21,21,22,22,29,29,30,30,31,31,33,33,34,34,35,35,36,36],"right_children":[2,4,6,8,10,12,14,16,18,-1,-1,20,22,24,26,28,-1,-1,30,-1,32,34,36,-1,-1,-1,-1,-1,-1,38,40,42,-1,44,46,48,50,-1,-1,-1,-1,-1,-1,-1,-1,-1,-1,-1,-1,-1,-1],"split_conditions":[4E-1,1E0,9.909636E-1,1.425383E1,4E-1,-1.17946506E-1,9.9970007E-1,1.0085711E0,5E-2,1.0564508E-1,-1.4026552E-1,8.5E-1,9.3129474E-1,2E-1,7E-1,5.355247E-1,8.2021624E-2,-9.56316E-2,1E0,9.9113956E-2,6E-1,7E-1,8.5E-1,-5.8210613E-3,5.5840272E-2,1.50796175E-2,1.3223197E-1,1.3534926E-1,3.875942E-2,3.5E-1,8.8745815E-1,7E-1,-1.4518629E-1,9.0266556E-1,8.886627E-1,8.962795E-1,-1.3165848E1,1.1323147E-1,4.2277973E-2,4.6186425E-2,-3.489511E-2,6.534726E-2,-1.4185174E-1,-1.4957446E-1,1.1508367E-1,-7.093556E-2,-1.9106029E-1,-2.0679632E-1,-1.3143604E-2,1.8797138E-1,-9.5434085E-2],"split_indices":[10,4,2,1,11,19,0,0,12,0,0,10,8,13,11,22,0,0,44,0,4,10,10,0,0,0,0,0,0,10,0,11,0,0,0,0,1,0,0,0,0,0,0,0,0,0,0,0,0,0,0],"split_type":[0,0,0,0,0,0,0,0,0,0,0,0,0,0,0,0,0,0,0,0,0,0,0,0,0,0,0,0,0,0,0,0,0,0,0,0,0,0,0,0,0,0,0,0,0,0,0,0,0,0,0],"sum_hessian":[7.2E1,3.3E1,3.9E1,2.8E1,5E0,3.3E1,6E0,2.1E1,7E0,3E0,2E0,1E1,2.3E1,3E0,3E0,9E0,1.2E1,1E0,6E0,4E0,6E0,1.4E1,9E0,1E0,2E0,1E0,2E0,8E0,1E0,4E0,2E0,3E0,3E0,3E0,1.1E1,5E0,4E0,2E0,2E0,1E0,1E0,2E0,1E0,2E0,1E0,2E0,9E0,3E0,2E0,1E0,3E0],"tree_param":{"num_deleted":"0","num_feature":"53","num_nodes":"51","size_leaf_vector":"1"}},{"base_weights":[-1.8391626E-2,7.131427E-1,-6.39736E-1,8.367385E-1,-3.0945141E-3,-9.126875E-1,7.774194E-1,9.778918E-1,3.4397483E-1,9.7721696E-2,-1.309145E-1,-1.5255547E-1,-1.2230527E0,3.6323178E-1,9.972521E-1,1.0514514E0,5.174986E-1,-9.085002E-2,6.526856E-1,9.118484E-2,-8.910503E-1,-5.912611E-1,-1.3581947E0,-5.5299997E-3,5.2117568E-2,1.4325643E-2,1.2341652E-1,4.26164E-2,1.1029772E0,6.2257852E-2,4.858947E-3,9.712329E-2,1.7096686E-1,-2.1636486E-1,-1.3429731E-1,6.9624186E-2,-1.409073E-1,-2.0792718E-1,-9.5214766E-1,1.2457116E-1,6.5746784E-2,1.00335434E-1,-4.4094708E-2,6.099078E-2,-1.3475914E-1,-1.1409491E-1,-1.9490689E-2],"categories":[],"categories_nodes":[],"categories_segments":[],"categories_sizes":[],"default_left":[0,0,0,0,0,0,0,0,0,0,0,0,0,0,0,0,0,0,0,0,0,0,0,0,0,0,0,0,0,0,0,0,0,0,0,0,0,0,0,0,0,0,0,0,0,0,0],"id":11,"left_children":[1,3,5,7,9,11,13,15,17,-1,-1,19,21,23,25,27,29,-1,31,-1,33,35,37,-1,-1,-1,-1,-1,39,-1,-1,-1,41,43,-1,-1,-1,-1,45,-1,-1,-1,-1,-1,-1,-1,-1],"loss_changes":[3.3637257E1,3.0124035E0,1.6182127E1,1.6807327E0,8.961336E0,7.83465E0,2.7513027E-1,2.0093536E-1,3.686185E0,0E0,0E0,9.459126E0,1.246109E0,2.9323918E-1,6.324885E-1,1.0988045E-1,2.1611392E-1,0E0,9.0810275E-1,0E0,1.8437681E0,7.298667E0,3.5832596E0,0E0,0E0,0E0,0E0,0E0,1.9841766E-1,0E0,0E0,0E0,2.479824E0,4.560713E0,0E0,0E0,0E0,0E0,1.7791739E0,0E0,0E0,0E0,0E0,0E0,0E0,0E0,0E0],"parents":[2147483647,0,0,1,1,2,2,3,3,4,4,5,5,6,6,7,7,8,8,11,11,12,12,13,13,14,14,15,15,16,16,18,18,20,20,21,21,22,22,28,28,32,32,33,33,38,38],"right_children":[2,4,6,8,10,12,14,16,18,-1,-1,20,22,24,26,28,30,-1,32,-1,34,36,38,-1,-1,-1,-1,-1,40,-1,-1,-1,42,44,-1,-1,-1,-1,46,-1,-1,-1,-1,-1,-1,-1,-1],"split_conditions":[4E-1,1E0,9.909636E-1,1.425383E1,4E-1,-1.17946506E-1,9.9970007E-1,1E0,5E-2,9.7721696E-2,-1.309145E-1,8.5E-1,7E-1,2E-1,7E-1,8.555238E-1,1.0490025E0,-9.085002E-2,8.8745815E-1,9.118484E-2,6E-1,8.886627E-1,2.577514E-1,-5.5299997E-3,5.2117568E-2,1.4325643E-2,1.2341652E-1,4.26164E-2,5.355247E-1,6.2257852E-2,4.858947E-3,9.712329E-2,3.5E-1,7E-1,-1.3429731E-1,6.9624186E-2,-1.409073E-1,-2.0792718E-1,8.5E-1,1.2457116E-1,6.5746784E-2,1.00335434E-1,-4.4094708E-2,6.099078E-2,-1.3475914E-1,-1.1409491E-1,-1.9490689E-2],"split_indices":[10,4,2,1,11,19,0,44,12,0,0,10,11,13,11,8,0,0,0,0,4,0,2,0,0,0,0,0,22,0,0,0,10,11,0,0,0,0,10,0,0,0,0,0,0,0,0],"split_type":[0,0,0,0,0,0,0,0,0,0,0,0,0,0,0,0,0,0,0,0,0,0,0,0,0,0,0,0,0,0,0,0,0,0,0,0,0,0,0,0,0,0,0,0,0,0,0],"sum_hessian":[7.2E1,3.3E1,3.9E1,2.8E1,5E0,3.3E1,6E0,2.1E1,7E0,3E0,2E0,1E1,2.3E1,3E0,3E0,1.7E1,4E0,1E0,6E0,4E0,6E0,5E0,1.8E1,1E0,2E0,1E0,2E0,2E0,1.5E1,3E0,1E0,3E0,3E0,3E0,3E0,2E0,3E0,5E0,1.3E1,1E1,5E0,1E0,2E0,2E0,1E0,1E1,3E0],"tree_param":{"num_deleted":"0","num_feature":"53","num_nodes":"47","size_leaf_vector":"1"}},{"base_weights":[-1.6771277E-2,6.5151584E-1,-5.8439606E-1,7.65567E-1,-8.317391E-3,-8.3699745E-1,7.260102E-1,8.9374137E-1,3.1739157E-1,9.0392545E-2,-1.2218686E-1,-1.4792538E-1,-1.1179472E0,3.3855557E-1,9.3196225E-1,9.5924723E-1,4.7917214E-1,-8.6307526E-2,6.093262E-1,8.389007E-2,-8.316689E-1,-5.4401547E-1,-1.2403495E0,-5.253506E-3,4.864308E-2,1.3609362E-2,1.1518873E-1,3.977531E-2,1.0045744E0,5.7588518E-2,4.6159984E-3,8.2075536E-1,5.3835392E-2,-2.1317053E-1,-1.2422501E-1,6.498258E-2,-1.3033925E-1,-1.9059992E-1,-8.6647475E-1,1.1324654E-1,6.0267862E-2,9.910073E-2,3.769183E-2,3.9020944E-2,-3.0945634E-2,5.6924727E-2,-1.280212E-1,-1.0372265E-1,-1.8028885E-2],"categories":[],"categories_nodes":[],"categories_segments":[],"categories_sizes":[],"default_left":[0,0,0,0,0,0,0,0,0,0,0,0,0,0,0,0,0,0,0,0,0,0,0,0,0,0,0,0,0,0,0,0,0,0,0,0,0,0,0,0,0,0,0,0,0,0,0,0,0],"id":12,"left_children":[1,3,5,7,9,11,13,15,17,-1,-1,19,21,23,25,27,29,-1,31,-1,33,35,37,-1,-1,-1,-1,-1,39,-1,-1,41,43,45,-1,-1,-1,-1,47,-1,-1,-1,-1,-1,-1,-1,-1,-1,-1],"loss_changes":[2.8072294E1,2.56503E0,1.3848087E1,1.382227E0,7.7467985E0,6.416847E0,2.4305844E-1,1.3780212E-1,3.2828474E0,0E0,0E0,8.119783E0,1.0112438E0,2.5688514E-1,5.433612E-1,5.8546066E-2,1.8280673E-1,0E0,7.779429E-1,0E0,1.512795E0,6.286432E0,3.0770226E0,0E0,0E0,0E0,0E0,0E0,1.3986778E-1,0E0,0E0,4.291773E-3,4.8735854E-1,4.068246E0,0E0,0E0,0E0,0E0,1.4533443E0,0E0,0E0,0E0,0E0,0E0,0E0,0E0,0E0,0E0,0E0],"parents":[2147483647,0,0,1,1,2,2,3,3,4,4,5,5,6,6,7,7,8,8,11,11,12,12,13,13,14,14,15,15,16,16,18,18,20,20,21,21,22,22,28,28,31,31,32,32,33,33,38,38],"right_children":[2,4,6,8,10,12,14,16,18,-1,-1,20,22,24,26,28,30,-1,32,-1,34,36,38,-1,-1,-1,-1,-1,40,-1,-1,42,44,46,-1,-1,-1,-1,48,-1,-1,-1,-1,-1,-1,-1,-1,-1,-1],"split_conditions":[4E-1,1E0,9.909636E-1,1.425383E1,4E-1,-1.17946506E-1,9.9970007E-1,1E0,5E-2,9.0392545E-2,-1.2218686E-1,8.5E-1,7E-1,2E-1,7E-1,8.555238E-1,1.0490025E0,-8.6307526E-2,1E0,8.389007E-2,6E-1,8.886627E-1,2.577514E-1,-5.253506E-3,4.864308E-2,1.3609362E-2,1.1518873E-1,3.977531E-2,5.355247E-1,5.7588518E-2,4.6159984E-3,3.5E-1,8.8745815E-1,7E-1,-1.2422501E-1,6.498258E-2,-1.3033925E-1,-1.9059992E-1,8.5E-1,1.1324654E-1,6.0267862E-2,9.910073E-2,3.769183E-2,3.9020944E-2,-3.0945634E-2,5.6924727E-2,-1.280212E-1,-1.0372265E-1,-1.8028885E-2],"split_indices":[10,4,2,1,11,19,0,44,12,0,0,10,11,13,11,8,0,0,44,0,4,0,2,0,0,0,0,0,22,0,0,10,0,11,0,0,0,0,10,0,0,0,0,0,0,0,0,0,0],"split_type":[0,0,0,0,0,0,0,0,0,0,0,0,0,0,0,0,0,0,0,0,0,0,0,0,0,0,0,0,0,0,0,0,0,0,0,0,0,0,0,0,0,0,0,0,0,0,0,0,0],"sum_hessian":[7.2E1,3.3E1,3.9E1,2.8E1,5E0,3.3E1,6E0,2.1E1,7E0,3E0,2E0,1E1,2.3E1,3E0,3E0,1.7E1,4E0,1E0,6E0,4E0,6E0,5E0,1.8E1,1E0,2E0,1E0,2E0,2E0,1.5E1,3E0,1E0,4E0,2E0,3E0,3E0,2E0,3E0,5E0,1.3E1,1E1,5E0,2E0,2E0,1E0,1E0,2E0,1E0,1E1,3E0],"tree_param":{"num_deleted":"0","num_feature":"53","num_nodes":"49","size_leaf_vector":"1"}},{"base_weights":[-1.5295427E-2,5.9525424E-1,-5.338803E-1,7.0052934E-1,-1.2784481E-2,-7.676842E-1,6.780074E-1,8.1688964E-1,2.9297245E-1,8.3613135E-2,-1.1404108E-1,-1.4326297E-1,-1.0218904E0,3.1554735E-1,8.709656E-1,8.7517184E-1,4.4369584E-1,-8.199215E-2,5.6908894E-1,7.717887E-2,-7.7640516E-1,-1.2103359E0,-6.370332E-1,-4.99084E-3,4.5400206E-2,1.2928891E-2,1.0750949E-1,3.7123617E-2,9.149615E-1,5.3269375E-2,4.385209E-3,8.544371E-2,1.4146852E-1,-3.078696E-1,-1.298496E-1,-2.9183322E-1,-1.415642E0,-1.6568482E-1,-1.7497343E-1,1.0295136E-1,5.5245575E-2,9.03636E-2,-4.137993E-2,5.312974E-2,-1.04441345E-1,-1.19058006E-1,1.20220356E-1,-5.7409175E-2,-1.526543E-1,-8.055235E-2,3.6446128E-2],"categories":[],"categories_nodes":[],"categories_segments":[],"categories_sizes":[],"default_left":[0,0,0,0,0,0,0,0,0,0,0,0,0,0,0,0,0,0,0,0,0,0,0,0,0,0,0,0,0,0,0,0,0,0,0,0,0,0,0,0,0,0,0,0,0,0,0,0,0,0,0],"id":13,"left_children":[1,3,5,7,9,11,13,15,17,-1,-1,19,21,23,25,27,29,-1,31,-1,33,35,37,-1,-1,-1,-1,-1,39,-1,-1,-1,41,43,-1,45,47,-1,49,-1,-1,-1,-1,-1,-1,-1,-1,-1,-1,-1,-1],"loss_changes":[2.3431187E1,2.185341E0,1.1854258E1,1.135953E0,6.6970916E0,5.2504826E0,2.1474671E-1,9.0203285E-2,2.924915E0,0E0,0E0,6.9721565E0,9.6956635E-1,2.250548E-1,4.6659398E-1,2.1259308E-2,1.5456659E-1,0E0,7.33269E-1,0E0,1.3125596E0,2.4154816E0,4.4222507E0,0E0,0E0,0E0,0E0,0E0,9.565258E-2,0E0,0E0,0E0,2.0667522E0,3.6453104E0,0E0,6.8023615E0,2.4356842E-1,0E0,3.0147066E0,0E0,0E0,0E0,0E0,0E0,0E0,0E0,0E0,0E0,0E0,0E0,0E0],"parents":[2147483647,0,0,1,1,2,2,3,3,4,4,5,5,6,6,7,7,8,8,11,11,12,12,13,13,14,14,15,15,16,16,18,18,20,20,21,21,22,22,28,28,32,32,33,33,35,35,36,36,38,38],"right_children":[2,4,6,8,10,12,14,16,18,-1,-1,20,22,24,26,28,30,-1,32,-1,34,36,38,-1,-1,-1,-1,-1,40,-1,-1,-1,42,44,-1,46,48,-1,50,-1,-1,-1,-1,-1,-1,-1,-1,-1,-1,-1,-1],"split_conditions":[4E-1,1E0,9.909636E-1,1.425383E1,4E-1,-1.17946506E-1,9.9970007E-1,1E0,5E-2,8.3613135E-2,-1.1404108E-1,8.5E-1,9.3129474E-1,2E-1,7E-1,8.555238E-1,1.0490025E0,-8.199215E-2,8.8745815E-1,7.717887E-2,7E-1,7E-1,7E-1,-4.99084E-3,4.5400206E-2,1.2928891E-2,1.0750949E-1,3.7123617E-2,5.355247E-1,5.3269375E-2,4.385209E-3,8.544371E-2,3.5E-1,6E-1,-1.298496E-1,9.0266556E-1,8.886627E-1,-1.6568482E-1,8.8745815E-1,1.0295136E-1,5.5245575E-2,9.03636E-2,-4.137993E-2,5.312974E-2,-1.04441345E-1,-1.19058006E-1,1.20220356E-1,-5.7409175E-2,-1.526543E-1,-8.055235E-2,3.6446128E-2],"split_indices":[10,4,2,1,11,19,0,44,12,0,0,10,8,13,11,8,0,0,0,0,11,10,10,0,0,0,0,0,22,0,0,0,10,4,0,0,0,0,0,0,0,0,0,0,0,0,0,0,0,0,0],"split_type":[0,0,0,0,0,0,0,0,0,0,0,0,0,0,0,0,0,0,0,0,0,0,0,0,0,0,0,0,0,0,0,0,0,0,0,0,0,0,0,0,0,0,0,0,0,0,0,0,0,0,0],"sum_hessian":[7.2E1,3.3E1,3.9E1,2.8E1,5E0,3.3E1,6E0,2.1E1,7E0,3E0,2E0,1E1,2.3E1,3E0,3E0,1.7E1,4E0,1E0,6E0,4E0,6E0,1.4E1,9E0,1E0,2E0,1E0,2E0,2E0,1.5E1,3E0,1E0,3E0,3E0,4E0,2E0,3E0,1.1E1,2E0,7E0,1E1,5E0,1E0,2E0,2E0,2E0,2E0,1E0,2E0,9E0,3E0,4E0],"tree_param":{"num_deleted":"0","num_feature":"53","num_nodes":"51","size_leaf_vector":"1"}},{"base_weights":[-1.4955452E-2,5.438167E-1,-4.8953786E-1,6.4100796E-1,-1.6577482E-2,-7.062885E-1,6.331849E-1,7.4669975E-1,2.702297E-1,7.734213E-2,-1.0643834E-1,-1.3838959E-1,-9.371468E-1,2.9409504E-1,8.1397855E-1,3.6361374E-2,7.880494E-2,-7.789254E-2,5.3138405E-1,7.100456E-2,-7.246448E-1,-4.0118587E-1,-1.0570741E0,-4.7412873E-3,4.237353E-2,1.2282443E-2,1.0034218E-1,7.220642E-2,3.645579E-2,-2.8734493E-1,-1.2119297E-1,6.524914E-2,-1.09114744E-1,-1.6654615E-1,-7.2083133E-1,3.279772E-2,-2.732935E-2,4.958776E-2,-9.747858E-2,-8.640302E-2,-1.4682668E-2],"categories":[],"categories_nodes":[],"categories_segments":[],"categories_sizes":[],"default_left":[0,0,0,0,0,0,0,0,0,0,0,0,0,0,0,0,0,0,0,0,0,0,0,0,0,0,0,0,0,0,0,0,0,0,0,0,0,0,0,0,0],"id":14,"left_children":[1,3,5,7,9,11,13,15,17,-1,-1,19,21,23,25,-1,-1,-1,27,-1,29,31,33,-1,-1,-1,-1,-1,35,37,-1,-1,-1,-1,39,-1,-1,-1,-1,-1,-1],"loss_changes":[1.9624609E1,1.8624516E0,1.0181247E1,9.346771E-1,5.7898088E0,4.3278503E0,1.8974996E-1,6.194496E-2,2.60584E0,0E0,0E0,5.9859257E0,1.1185474E0,1.9718322E-1,4.0049314E-1,0E0,0E0,0E0,6.342875E-1,0E0,1.1433852E0,5.0739446E0,2.6862354E0,0E0,0E0,0E0,0E0,0E0,3.6052966E-1,3.1754704E0,0E0,0E0,0E0,0E0,1.0238919E0,0E0,0E0,0E0,0E0,0E0,0E0],"parents":[2147483647,0,0,1,1,2,2,3,3,4,4,5,5,6,6,7,7,8,8,11,11,12,12,13,13,14,14,18,18,20,20,21,21,22,22,28,28,29,29,34,34],"right_children":[2,4,6,8,10,12,14,16,18,-1,-1,20,22,24,26,-1,-1,-1,28,-1,30,32,34,-1,-1,-1,-1,-1,36,38,-1,-1,-1,-1,40,-1,-1,-1,-1,-1,-1],"split_conditions":[4E-1,1E0,9.909636E-1,1.425383E1,4E-1,-1.17946506E-1,9.9970007E-1,8.555238E-1,5E-2,7.734213E-2,-1.0643834E-1,8.5E-1,7E-1,2E-1,7E-1,3.6361374E-2,7.880494E-2,-7.789254E-2,1E0,7.100456E-2,7E-1,8.886627E-1,2.577514E-1,-4.7412873E-3,4.237353E-2,1.2282443E-2,1.0034218E-1,7.220642E-2,8.8745815E-1,6E-1,-1.2119297E-1,6.524914E-2,-1.09114744E-1,-1.6654615E-1,8.5E-1,3.279772E-2,-2.732935E-2,4.958776E-2,-9.747858E-2,-8.640302E-2,-1.4682668E-2],"split_indices":[10,4,2,1,11,19,0,8,12,0,0,10,11,13,11,0,0,0,44,0,11,0,2,0,0,0,0,0,0,4,0,0,0,0,10,0,0,0,0,0,0],"split_type":[0,0,0,0,0,0,0,0,0,0,0,0,0,0,0,0,0,0,0,0,0,0,0,0,0,0,0,0,0,0,0,0,0,0,0,0,0,0,0,0,0],"sum_hessian":[7.2E1,3.3E1,3.9E1,2.8E1,5E0,3.3E1,6E0,2.1E1,7E0,3E0,2E0,1E1,2.3E1,3E0,3E0,3E0,1.8E1,1E0,6E0,4E0,6E0,5E0,1.8E1,1E0,2E0,1E0,2E0,4E0,2E0,4E0,2E0,2E0,3E0,5E0,1.3E1,1E0,1E0,2E0,2E0,1E1,3E0],"tree_param":{"num_deleted":"0","num_feature":"53","num_nodes":"41","size_leaf_vector":"1"}},{"base_weights":[-1.5836177E-2,4.9196005E-1,-4.4706708E-1,5.808709E-1,-1.9769033E-2,-6.4770603E-1,5.913318E-1,6.772646E-1,2.4317944E-1,7.154148E-2,-9.934244E-2,-1.3346702E-1,-8.5641116E-1,2.740935E-1,7.6073706E-1,7.2879505E-1,3.5630196E-1,-7.399793E-2,4.89342E-1,6.532418E-2,-6.7633516E-1,-3.683782E-1,-9.6545255E-1,-4.5042275E-3,3.954862E-2,1.16683245E-2,9.3652725E-2,5.0837636E-2,8.542924E-1,4.442489E-2,2.2571087E-4,7.460518E-2,1.10296726E-1,-2.6818857E-1,-1.1311344E-1,6.089921E-2,-1.00931145E-1,-1.5266731E-1,-6.559686E-1,8.9628436E-2,2.3818254E-2,8.22351E-2,-4.011717E-2,4.628191E-2,-9.098001E-2,-7.85482E-2,-1.3581461E-2],"categories":[],"categories_nodes":[],"categories_segments":[],"categories_sizes":[],"default_left":[0,0,0,0,0,0,0,0,0,0,0,0,0,0,0,0,0,0,0,0,0,0,0,0,0,0,0,0,0,0,0,0,0,0,0,0,0,0,0,0,0,0,0,0,0,0,0],"id":15,"left_children":[1,3,5,7,9,11,13,15,17,-1,-1,19,21,23,25,27,29,-1,31,-1,33,35,37,-1,-1,-1,-1,-1,39,-1,-1,-1,41,43,-1,-1,-1,-1,45,-1,-1,-1,-1,-1,-1,-1,-1],"loss_changes":[1.6205292E1,1.558425E0,8.71674E0,7.7929115E-1,5.0056043E0,3.5347233E0,1.6767979E-1,1.0419464E-1,2.298238E0,0E0,0E0,5.1396804E0,9.2152786E-1,1.7277661E-1,3.4359646E-1,6.361389E-2,1.5468311E-1,0E0,5.988455E-1,0E0,9.960158E-1,4.3732367E0,2.2986374E0,0E0,0E0,0E0,0E0,0E0,4.5237064E-2,0E0,0E0,0E0,1.786677E0,2.7661874E0,0E0,0E0,0E0,0E0,8.364568E-1,0E0,0E0,0E0,0E0,0E0,0E0,0E0,0E0],"parents":[2147483647,0,0,1,1,2,2,3,3,4,4,5,5,6,6,7,7,8,8,11,11,12,12,13,13,14,14,15,15,16,16,18,18,20,20,21,21,22,22,28,28,32,32,33,33,38,38],"right_children":[2,4,6,8,10,12,14,16,18,-1,-1,20,22,24,26,28,30,-1,32,-1,34,36,38,-1,-1,-1,-1,-1,40,-1,-1,-1,42,44,-1,-1,-1,-1,46,-1,-1,-1,-1,-1,-1,-1,-1],"split_conditions":[4E-1,1E0,9.909636E-1,1.425383E1,4E-1,-1.17946506E-1,9.9970007E-1,1E0,5E-2,7.154148E-2,-9.934244E-2,8.5E-1,7E-1,2E-1,7E-1,1.483798E-2,1.0490025E0,-7.399793E-2,8.8745815E-1,6.532418E-2,7E-1,8.886627E-1,2.577514E-1,-4.5042275E-3,3.954862E-2,1.16683245E-2,9.3652725E-2,5.0837636E-2,5.355247E-1,4.442489E-2,2.2571087E-4,7.460518E-2,3.5E-1,6E-1,-1.1311344E-1,6.089921E-2,-1.00931145E-1,-1.5266731E-1,8.5E-1,8.9628436E-2,2.3818254E-2,8.22351E-2,-4.011717E-2,4.628191E-2,-9.098001E-2,-7.85482E-2,-1.3581461E-2],"split_indices":[10,4,2,1,11,19,0,44,12,0,0,10,11,13,11,28,0,0,0,0,11,0,2,0,0,0,0,0,22,0,0,0,10,4,0,0,0,0,10,0,0,0,0,0,0,0,0],"split_type":[0,0,0,0,0,0,0,0,0,0,0,0,0,0,0,0,0,0,0,0,0,0,0,0,0,0,0,0,0,0,0,0,0,0,0,0,0,0,0,0,0,0,0,0,0,0,0],"sum_hessian":[7.2E1,3.3E1,3.9E1,2.8E1,5E0,3.3E1,6E0,2.1E1,7E0,3E0,2E0,1E1,2.3E1,3E0,3E0,1.7E1,4E0,1E0,6E0,4E0,6E0,5E0,1.8E1,1E0,2E0,1E0,2E0,8E0,9E0,3E0,1E0,3E0,3E0,4E0,2E0,2E0,3E0,5E0,1.3E1,8E0,1E0,1E0,2E0,2E0,2E0,1E1,3E0],"tree_param":{"num_deleted":"0","num_feature":"53","num_nodes":"47","size_leaf_vector":"1"}},{"base_weights":[-1.4431836E-2,4.493482E-1,-4.0828407E-1,5.3146183E-1,-2.242581E-2,-5.9403294E-1,5.5225086E-1,6.190353E-1,2.2420222E-1,6.617584E-2,-9.271962E-2,-1.2852812E-1,-7.826379E-1,2.5544536E-1,7.1099365E-1,7.555151E-2,4.6643272E-2,-7.029803E-2,4.570826E-1,6.0098268E-2,-6.312461E-1,-3.3821237E-1,-8.8179135E-1,-4.2790174E-3,3.691206E-2,1.1084914E-2,8.740921E-2,6.260334E-1,2.3137093E-2,-2.503093E-1,-1.05572544E-1,5.6839257E-2,-9.33613E-1,-1.3994505E-1,-5.969524E-1,7.6592E-2,2.77469E-2,2.7427578E-2,-2.3957014E-2,4.3196455E-2,-8.491467E-2,-1.0627291E-1,-2.7313232E-2,-7.1407445E-2,-1.2562859E-2],"categories":[],"categories_nodes":[],"categories_segments":[],"categories_sizes":[],"default_left":[0,0,0,0,0,0,0,0,0,0,0,0,0,0,0,0,0,0,0,0,0,0,0,0,0,0,0,0,0,0,0,0,0,0,0,0,0,0,0,0,0,0,0,0,0],"id":16,"left_children":[1,3,5,7,9,11,13,15,17,-1,-1,19,21,23,25,-1,-1,-1,27,-1,29,31,33,-1,-1,-1,-1,35,37,39,-1,-1,41,-1,43,-1,-1,-1,-1,-1,-1,-1,-1,-1,-1],"loss_changes":[1.3517701E1,1.3290467E0,7.4647846E0,6.415367E-1,4.327758E0,2.884492E0,1.4819002E-1,1.0580158E-1,2.0487013E0,0E0,0E0,4.4134884E0,7.5935936E-1,1.5140271E-1,2.946384E-1,0E0,0E0,0E0,4.987234E-1,0E0,8.676405E-1,3.7694178E0,1.9661341E0,0E0,0E0,0E0,0E0,3.127861E-2,2.636361E-1,2.4096568E0,0E0,0E0,5.08492E-2,0E0,6.831255E-1,0E0,0E0,0E0,0E0,0E0,0E0,0E0,0E0,0E0,0E0],"parents":[2147483647,0,0,1,1,2,2,3,3,4,4,5,5,6,6,7,7,8,8,11,11,12,12,13,13,14,14,18,18,20,20,21,21,22,22,27,27,28,28,29,29,32,32,34,34],"right_children":[2,4,6,8,10,12,14,16,18,-1,-1,20,22,24,26,-1,-1,-1,28,-1,30,32,34,-1,-1,-1,-1,36,38,40,-1,-1,42,-1,44,-1,-1,-1,-1,-1,-1,-1,-1,-1,-1],"split_conditions":[4E-1,1E0,9.909636E-1,1.425383E1,4E-1,-1.17946506E-1,9.9970007E-1,1.0085711E0,5E-2,6.617584E-2,-9.271962E-2,8.5E-1,7E-1,2E-1,7E-1,7.555151E-2,4.6643272E-2,-7.029803E-2,1E0,6.0098268E-2,7E-1,8.886627E-1,2.577514E-1,-4.2790174E-3,3.691206E-2,1.1084914E-2,8.740921E-2,3.5E-1,8.8745815E-1,6E-1,-1.05572544E-1,5.6839257E-2,1.0157572E0,-1.3994505E-1,8.5E-1,7.6592E-2,2.77469E-2,2.7427578E-2,-2.3957014E-2,4.3196455E-2,-8.491467E-2,-1.0627291E-1,-2.7313232E-2,-7.1407445E-2,-1.2562859E-2],"split_indices":[10,4,2,1,11,19,0,0,12,0,0,10,11,13,11,0,0,0,44,0,11,0,2,0,0,0,0,10,0,4,0,0,0,0,10,0,0,0,0,0,0,0,0,0,0],"split_type":[0,0,0,0,0,0,0,0,0,0,0,0,0,0,0,0,0,0,0,0,0,0,0,0,0,0,0,0,0,0,0,0,0,0,0,0,0,0,0,0,0,0,0,0,0],"sum_hessian":[7.2E1,3.3E1,3.9E1,2.8E1,5E0,3.3E1,6E0,2.1E1,7E0,3E0,2E0,1E1,2.3E1,3E0,3E0,9E0,1.2E1,1E0,6E0,4E0,6E0,5E0,1.8E1,1E0,2E0,1E0,2E0,4E0,2E0,4E0,2E0,2E0,3E0,5E0,1.3E1,2E0,2E0,1E0,1E0,2E0,2E0,2E0,1E0,1E1,3E0],"tree_param":{"num_deleted":"0","num_feature":"53","num_nodes":"45","size_leaf_vector":"1"}},{"base_weights":[-1.4681343E-2,4.0832996E-1,-3.7387392E-1,4.8382276E-1,-2.4607023E-2,-5.460372E-1,5.1575834E-1,6.168505E-1,2.9723233E-1,6.1212685E-2,-8.6538315E-2,-1.23602085E-1,-7.169017E-1,2.3805916E-1,6.645179E-1,7.220214E-2,4.21427E-2,-1.7588115E-1,4.4225246E-1,5.529038E-2,-5.891631E-1,-8.683313E-1,-4.1806716E-1,-4.0650605E-3,3.445126E-2,1.0530663E-2,8.158194E-2,-6.678312E-2,2.107126E-2,6.5051806E-1,6.223011E-2,-2.3362207E-1,-9.8534375E-2,-2.9390335E-2,-1.0756173E0,-1.388819E-1,-1.7767847E-3,2.9996896E-2,8.384377E-2,2.6956273E-2,-1.6584588E-2,4.031668E-2,-7.9253696E-2,-8.79369E-2,1.2602727E-1,-5.735893E-2,-1.2549327E-1,-5.6127686E-2,4.461786E-2],"categories":[],"categories_nodes":[],"categories_segments":[],"categories_sizes":[],"default_left":[0,0,0,0,0,0,0,0,0,0,0,0,0,0,0,0,0,0,0,0,0,0,0,0,0,0,0,0,0,0,0,0,0,0,0,0,0,0,0,0,0,0,0,0,0,0,0,0,0],"id":17,"left_children":[1,3,5,7,9,11,13,15,17,-1,-1,19,21,23,25,-1,-1,27,29,-1,31,33,35,-1,-1,-1,-1,-1,-1,37,39,41,-1,43,45,-1,47,-1,-1,-1,-1,-1,-1,-1,-1,-1,-1,-1,-1],"loss_changes":[1.1244467E1,1.1231494E0,6.408103E0,5.364809E-1,3.741828E0,2.3654823E0,1.3097835E-1,2.456665E-2,1.0383376E0,0E0,0E0,3.7902527E0,7.2303677E-1,1.3268313E-1,2.5252688E-1,0E0,0E0,9.014596E-1,8.3011985E-1,0E0,7.558112E-1,2.5768995E0,4.038679E0,0E0,0E0,0E0,0E0,0E0,0E0,2.0961976E-1,2.811438E-1,2.0990782E0,0E0,5.4929886E0,3.604393E-1,0E0,2.2554784E0,0E0,0E0,0E0,0E0,0E0,0E0,0E0,0E0,0E0,0E0,0E0,0E0],"parents":[2147483647,0,0,1,1,2,2,3,3,4,4,5,5,6,6,7,7,8,8,11,11,12,12,13,13,14,14,17,17,18,18,20,20,21,21,22,22,29,29,30,30,31,31,33,33,34,34,36,36],"right_children":[2,4,6,8,10,12,14,16,18,-1,-1,20,22,24,26,-1,-1,28,30,-1,32,34,36,-1,-1,-1,-1,-1,-1,38,40,42,-1,44,46,-1,48,-1,-1,-1,-1,-1,-1,-1,-1,-1,-1,-1,-1],"split_conditions":[4E-1,1E0,9.909636E-1,3.0424805E0,4E-1,-1.17946506E-1,9.9970007E-1,5.355247E-1,5E-2,6.1212685E-2,-8.6538315E-2,8.5E-1,9.3129474E-1,2E-1,7E-1,7.220214E-2,4.21427E-2,8.8745815E-1,1E0,5.529038E-2,7E-1,7E-1,7E-1,-4.0650605E-3,3.445126E-2,1.0530663E-2,8.158194E-2,-6.678312E-2,2.107126E-2,9.3129474E-1,1.0490025E0,6E-1,-9.8534375E-2,9.0266556E-1,2.577514E-1,-1.388819E-1,8.8745815E-1,2.9996896E-2,8.384377E-2,2.6956273E-2,-1.6584588E-2,4.031668E-2,-7.9253696E-2,-8.79369E-2,1.2602727E-1,-5.735893E-2,-1.2549327E-1,-5.6127686E-2,4.461786E-2],"split_indices":[10,4,2,1,11,19,0,22,12,0,0,10,8,13,11,0,0,0,44,0,11,10,10,0,0,0,0,0,0,8,0,4,0,0,2,0,0,0,0,0,0,0,0,0,0,0,0,0,0],"split_type":[0,0,0,0,0,0,0,0,0,0,0,0,0,0,0,0,0,0,0,0,0,0,0,0,0,0,0,0,0,0,0,0,0,0,0,0,0,0,0,0,0,0,0,0,0,0,0,0,0],"sum_hessian":[7.2E1,3.3E1,3.9E1,2.8E1,5E0,3.3E1,6E0,1.5E1,1.3E1,3E0,2E0,1E1,2.3E1,3E0,3E0,8E0,7E0,3E0,1E1,4E0,6E0,1.4E1,9E0,1E0,2E0,1E0,2E0,1E0,2E0,6E0,4E0,4E0,2E0,3E0,1.1E1,2E0,7E0,3E0,3E0,2E0,2E0,2E0,2E0,2E0,1E0,4E0,7E0,3E0,4E0],"tree_param":{"num_deleted":"0","num_feature":"53","num_nodes":"49","size_leaf_vector":"1"}},{"base_weights":[-1.4409287E-2,3.7242404E-1,-3.428574E-1,4.4209036E-1,-2.6367188E-2,-5.025315E-1,4.8168224E-1,5.154602E-1,1.8506211E-1,5.662174E-2,-8.076909E-2,-1.1871281E-1,-6.5750957E-1,2.2184968E-1,6.210942E-1,6.25543E-1,3.9113026E-2,-6.344397E-2,3.9276806E-1,5.086716E-2,-5.498856E-1,-2.4687703E-1,-7.5257725E-1,-3.861809E-3,3.2154497E-2,1.00041395E-2,7.614314E-2,6.57842E-2,1.6742611E-2,6.0849536E-2,7.884872E-2,-2.1804723E-1,-9.196542E-2,5.683284E-2,-7.9656184E-1,-1.2303444E-1,-4.9406436E-1,7.279386E-2,-3.801608E-2,3.7628904E-2,-7.397011E-2,-9.082183E-2,-2.3079623E-2,-5.8984846E-2,-1.0714203E-2],"categories":[],"categories_nodes":[],"categories_segments":[],"categories_sizes":[],"default_left":[0,0,0,0,0,0,0,0,0,0,0,0,0,0,0,0,0,0,0,0,0,0,0,0,0,0,0,0,0,0,0,0,0,0,0,0,0,0,0,0,0,0,0,0,0],"id":18,"left_children":[1,3,5,7,9,11,13,15,17,-1,-1,19,21,23,25,27,-1,-1,29,-1,31,33,35,-1,-1,-1,-1,-1,-1,-1,37,39,-1,-1,41,-1,43,-1,-1,-1,-1,-1,-1,-1,-1],"loss_changes":[9.4026785E0,9.562559E-1,5.5083666E0,4.5149326E-1,3.2353315E0,1.9443827E0,1.157769E-1,5.643606E-2,1.6109108E0,0E0,0E0,3.2553327E0,7.5111485E-1,1.1628707E-1,2.1631753E-1,3.7827253E-2,0E0,0E0,4.260677E-1,0E0,6.583955E-1,3.141345E0,1.738801E0,0E0,0E0,0E0,0E0,0E0,0E0,0E0,1.4684876E0,1.8285304E0,0E0,0E0,4.3072224E-2,0E0,4.5565653E-1,0E0,0E0,0E0,0E0,0E0,0E0,0E0,0E0],"parents":[2147483647,0,0,1,1,2,2,3,3,4,4,5,5,6,6,7,7,8,8,11,11,12,12,13,13,14,14,15,15,18,18,20,20,21,21,22,22,30,30,31,31,34,34,36,36],"right_children":[2,4,6,8,10,12,14,16,18,-1,-1,20,22,24,26,28,-1,-1,30,-1,32,34,36,-1,-1,-1,-1,-1,-1,-1,38,40,-1,-1,42,-1,44,-1,-1,-1,-1,-1,-1,-1,-1],"split_conditions":[4E-1,1E0,9.909636E-1,1.425383E1,4E-1,-1.17946506E-1,9.9970007E-1,1.0085711E0,5E-2,5.662174E-2,-8.076909E-2,8.5E-1,7E-1,2E-1,7E-1,5.355247E-1,3.9113026E-2,-6.344397E-2,8.8745815E-1,5.086716E-2,7E-1,8.886627E-1,2.577514E-1,-3.861809E-3,3.2154497E-2,1.00041395E-2,7.614314E-2,6.57842E-2,1.6742611E-2,6.0849536E-2,3.5E-1,6E-1,-9.196542E-2,5.683284E-2,1.0157572E0,-1.2303444E-1,8.5E-1,7.279386E-2,-3.801608E-2,3.7628904E-2,-7.397011E-2,-9.082183E-2,-2.3079623E-2,-5.8984846E-2,-1.0714203E-2],"split_indices":[10,4,2,1,11,19,0,0,12,0,0,10,11,13,11,22,0,0,0,0,11,0,2,0,0,0,0,0,0,0,10,4,0,0,0,0,10,0,0,0,0,0,0,0,0],"split_type":[0,0,0,0,0,0,0,0,0,0,0,0,0,0,0,0,0,0,0,0,0,0,0,0,0,0,0,0,0,0,0,0,0,0,0,0,0,0,0,0,0,0,0,0,0],"sum_hessian":[7.2E1,3.3E1,3.9E1,2.8E1,5E0,3.3E1,6E0,2.1E1,7E0,3E0,2E0,1E1,2.3E1,3E0,3E0,9E0,1.2E1,1E0,6E0,4E0,6E0,5E0,1.8E1,1E0,2E0,1E0,2E0,8E0,1E0,3E0,3E0,4E0,2E0,2E0,3E0,5E0,1.3E1,1E0,2E0,2E0,2E0,2E0,1E0,1E1,3E0],"tree_param":{"num_deleted":"0","num_feature":"53","num_nodes":"45","size_leaf_vector":"1"}},{"base_weights":[-1.410711E-2,3.3899558E-1,-3.138917E-1,4.031855E-1,-2.7754942E-2,-4.6190313E-1,4.4986254E-1,5.137061E-1,2.4807729E-1,5.2375126E-1,-7.538449E-2,-1.138815E-1,-6.0216707E-1,2.0673788E-1,5.805216E-1,5.993669E-2,3.531244E-2,-1.7341661E-1,3.7879533E-1,2.4333445E-2,6.825008E-2,4.6797793E-2,-5.1322657E-1,-2.3170078E-1,-6.8746346E-1,-3.6687136E-3,3.0010859E-2,9.503937E-3,7.106692E-2,-6.0271766E-2,1.7058961E-2,5.682001E-1,3.786955E-2,-2.0351085E-1,-8.583439E-2,5.3043988E-2,-7.4538106E-1,-1.1278158E-1,-4.4963652E-1,2.5899852E-2,7.353517E-2,2.182711E-2,-1.5515518E-2,3.5120297E-2,-6.903877E-2,-8.476705E-2,-2.1925641E-2,-5.36226E-2,-9.910643E-3],"categories":[],"categories_nodes":[],"categories_segments":[],"categories_sizes":[],"default_left":[0,0,0,0,0,0,0,0,0,0,0,0,0,0,0,0,0,0,0,0,0,0,0,0,0,0,0,0,0,0,0,0,0,0,0,0,0,0,0,0,0,0,0,0,0,0,0,0,0],"id":19,"left_children":[1,3,5,7,9,11,13,15,17,19,-1,21,23,25,27,-1,-1,29,31,-1,-1,-1,33,35,37,-1,-1,-1,-1,-1,-1,39,41,43,-1,-1,45,-1,47,-1,-1,-1,-1,-1,-1,-1,-1,-1,-1],"loss_changes":[7.833805E0,8.1160736E-1,4.729567E0,3.6969805E-1,2.7974858E0,1.5911307E0,1.0234928E-1,8.43811E-3,8.370453E-1,1.1988282E-2,0E0,2.7961683E0,5.991001E-1,1.0192521E-1,1.851958E-1,0E0,0E0,6.935463E-1,6.887853E-1,0E0,0E0,0E0,5.735353E-1,2.7443593E0,1.4827175E0,0E0,0E0,0E0,0E0,0E0,0E0,1.713295E-1,2.079757E-1,1.5928527E0,0E0,0E0,2.941084E-2,0E0,3.717873E-1,0E0,0E0,0E0,0E0,0E0,0E0,0E0,0E0,0E0,0E0],"parents":[2147483647,0,0,1,1,2,2,3,3,4,4,5,5,6,6,7,7,8,8,9,9,11,11,12,12,13,13,14,14,17,17,18,18,22,22,23,23,24,24,31,31,32,32,33,33,36,36,38,38],"right_children":[2,4,6,8,10,12,14,16,18,20,-1,22,24,26,28,-1,-1,30,32,-1,-1,-1,34,36,38,-1,-1,-1,-1,-1,-1,40,42,44,-1,-1,46,-1,48,-1,-1,-1,-1,-1,-1,-1,-1,-1,-1],"split_conditions":[4E-1,1E0,9.909636E-1,3.0424805E0,4E-1,-1.17946506E-1,9.9970007E-1,5.355247E-1,5E-2,1.0157572E0,-7.538449E-2,8.5E-1,7E-1,2E-1,7E-1,5.993669E-2,3.531244E-2,8.8745815E-1,1E0,2.4333445E-2,6.825008E-2,4.6797793E-2,7E-1,8.886627E-1,2.577514E-1,-3.6687136E-3,3.0010859E-2,9.503937E-3,7.106692E-2,-6.0271766E-2,1.7058961E-2,9.3129474E-1,1.0490025E0,6E-1,-8.583439E-2,5.3043988E-2,1.0157572E0,-1.1278158E-1,8.5E-1,2.5899852E-2,7.353517E-2,2.182711E-2,-1.5515518E-2,3.5120297E-2,-6.903877E-2,-8.476705E-2,-2.1925641E-2,-5.36226E-2,-9.910643E-3],"split_indices":[10,4,2,1,11,19,0,22,12,0,0,10,11,13,11,0,0,0,44,0,0,0,11,0,2,0,0,0,0,0,0,8,0,4,0,0,0,0,10,0,0,0,0,0,0,0,0,0,0],"split_type":[0,0,0,0,0,0,0,0,0,0,0,0,0,0,0,0,0,0,0,0,0,0,0,0,0,0,0,0,0,0,0,0,0,0,0,0,0,0,0,0,0,0,0,0,0,0,0,0,0],"sum_hessian":[7.2E1,3.3E1,3.9E1,2.8E1,5E0,3.3E1,6E0,1.5E1,1.3E1,3E0,2E0,1E1,2.3E1,3E0,3E0,8E0,7E0,3E0,1E1,2E0,1E0,4E0,6E0,5E0,1.8E1,1E0,2E0,1E0,2E0,1E0,2E0,6E0,4E0,4E0,2E0,2E0,3E0,5E0,1.3E1,3E0,3E0,2E0,2E0,2E0,2E0,2E0,1E0,1E1,3E0],"tree_param":{"num_deleted":"0","num_feature":"53","num_nodes":"49","size_leaf_vector":"1"}},{"base_weights":[-1.2984384E-2,3.1024256E-1,-2.874027E-1,3.683077E-1,-2.2112766E-2,-4.246222E-1,4.2014965E-1,4.300547E-1,1.524651E-1,4.9452233E-1,-7.0358865E-2,-1.09125614E-1,-5.515322E-1,1.9264972E-1,5.426122E-1,3.3703348E-1,5.507126E-1,-5.7258178E-2,3.3784062E-1,2.2711245E-2,6.48376E-2,4.305397E-2,-4.7901148E-1,-6.7848074E-1,-3.0595618E-1,-3.4852743E-3,2.8010145E-2,9.028745E-3,6.632913E-2,2.0602518E-1,4.2591263E-2,5.8898628E-2,1.4139843E-2,5.992187E-2,1.1344566E-1,-1.899435E-1,-8.011209E-2,9.832901E-2,-8.808773E-1,-1.2211597E-1,7.548967E-2,6.74264E-3,3.277674E-2,5.473544E-2,-3.5827827E-2,-5.0421655E-2,5.3357434E-2,-7.046033E-2,1.253563E-1,-5.2577205E-2,-1.148354E-1,-4.2874224E-2,4.6377726E-2],"categories":[],"categories_nodes":[],"categories_segments":[],"categories_sizes":[],"default_left":[0,0,0,0,0,0,0,0,0,0,0,0,0,0,0,0,0,0,0,0,0,0,0,0,0,0,0,0,0,0,0,0,0,0,0,0,0,0,0,0,0,0,0,0,0,0,0,0,0,0,0,0,0],"id":20,"left_children":[1,3,5,7,9,11,13,15,17,19,-1,21,23,25,27,29,31,-1,33,-1,-1,-1,35,37,39,-1,-1,-1,-1,41,-1,-1,-1,-1,43,45,-1,47,49,-1,51,-1,-1,-1,-1,-1,-1,-1,-1,-1,-1,-1,-1],"loss_changes":[6.56422E0,6.642852E-1,4.062005E0,3.209331E-1,2.4603865E0,1.3011627E0,9.048736E-2,6.131363E-2,1.2686889E0,1.731366E-2,0E0,2.4019938E0,5.406275E-1,8.934423E-2,1.5845776E-1,8.690977E-2,4.204607E-2,0E0,3.425846E-1,0E0,0E0,0E0,4.9961293E-1,2.4449692E0,3.5831904E0,0E0,0E0,0E0,0E0,1.128864E-1,0E0,0E0,0E0,0E0,1.2195308E0,1.4059479E0,0E0,4.593563E0,5.3601646E-1,0E0,1.7651368E0,0E0,0E0,0E0,0E0,0E0,0E0,0E0,0E0,0E0,0E0,0E0,0E0],"parents":[2147483647,0,0,1,1,2,2,3,3,4,4,5,5,6,6,7,7,8,8,9,9,11,11,12,12,13,13,14,14,15,15,16,16,18,18,22,22,23,23,24,24,29,29,34,34,35,35,37,37,38,38,40,40],"right_children":[2,4,6,8,10,12,14,16,18,20,-1,22,24,26,28,30,32,-1,34,-1,-1,-1,36,38,40,-1,-1,-1,-1,42,-1,-1,-1,-1,44,46,-1,48,50,-1,52,-1,-1,-1,-1,-1,-1,-1,-1,-1,-1,-1,-1],"split_conditions":[4E-1,1E0,9.909636E-1,1.425383E1,4E-1,-1.17946506E-1,9.9970007E-1,1.5713125E-2,5E-2,1.0157572E0,-7.0358865E-2,8.5E-1,9.3129474E-1,2E-1,7E-1,1.5E-1,5.355247E-1,-5.7258178E-2,3.5E-1,2.2711245E-2,6.48376E-2,4.305397E-2,7E-1,7E-1,7E-1,-3.4852743E-3,2.8010145E-2,9.028745E-3,6.632913E-2,5.355247E-1,4.2591263E-2,5.8898628E-2,1.4139843E-2,5.992187E-2,8.8745815E-1,1.0485253E0,-8.011209E-2,9.0266556E-1,3.5110384E-1,-1.2211597E-1,8.8745815E-1,6.74264E-3,3.277674E-2,5.473544E-2,-3.5827827E-2,-5.0421655E-2,5.3357434E-2,-7.046033E-2,1.253563E-1,-5.2577205E-2,-1.148354E-1,-4.2874224E-2,4.6377726E-2],"split_indices":[10,4,2,1,11,19,0,28,12,0,0,10,8,13,11,13,22,0,10,0,0,0,11,10,10,0,0,0,0,22,0,0,0,0,0,0,0,0,2,0,0,0,0,0,0,0,0,0,0,0,0,0,0],"split_type":[0,0,0,0,0,0,0,0,0,0,0,0,0,0,0,0,0,0,0,0,0,0,0,0,0,0,0,0,0,0,0,0,0,0,0,0,0,0,0,0,0,0,0,0,0,0,0,0,0,0,0,0,0],"sum_hessian":[7.2E1,3.3E1,3.9E1,2.8E1,5E0,3.3E1,6E0,2.1E1,7E0,3E0,2E0,1E1,2.3E1,3E0,3E0,1.4E1,7E0,1E0,6E0,2E0,1E0,4E0,6E0,1.4E1,9E0,1E0,2E0,1E0,2E0,7E0,7E0,6E0,1E0,2E0,4E0,4E0,2E0,3E0,1.1E1,2E0,7E0,4E0,3E0,2E0,2E0,3E0,1E0,2E0,1E0,6E0,5E0,3E0,4E0],"tree_param":{"num_deleted":"0","num_feature":"53","num_nodes":"53","size_leaf_vector":"1"}},{"base_weights":[-1.1294954E-2,2.8492153E-1,-2.6279658E-1,3.375707E-1,-1.7036358E-2,-3.8996142E-1,3.924036E-1,3.941014E-1,1.3991481E-1,4.6695757E-1,-6.566828E-2,-7.197938E-1,-2.6079017E-1,1.7951584E-1,5.0719047E-1,3.088043E-1,5.047709E-1,-5.439527E-2,3.153177E-1,2.1197192E-2,6.1595727E-2,-1.2526412E0,1.7714928E-1,1.8758312E-1,-8.892613E-1,-3.3110143E-3,2.6142789E-2,8.577299E-3,6.19072E-2,1.1713755E-1,3.469595E-2,5.3850144E-2,1.3432837E-2,5.5927057E-2,1.0588245E-1,-1.4520437E-1,-4.3628924E-2,3.5488537E-1,-1.5040152E-1,-1.3016096E-1,-5.7192945E-1,-5.539465E-3,1.9311316E-2,5.1086396E-2,-3.343932E-2,5.057619E-2,-3.558907E-3,3.21064E-2,-4.6640027E-2,-2.3073396E-2,-6.472056E-2],"categories":[],"categories_nodes":[],"categories_segments":[],"categories_sizes":[],"default_left":[0,0,0,0,0,0,0,0,0,0,0,0,0,0,0,0,0,0,0,0,0,0,0,0,0,0,0,0,0,0,0,0,0,0,0,0,0,0,0,0,0,0,0,0,0,0,0,0,0,0,0],"id":21,"left_children":[1,3,5,7,9,11,13,15,17,19,-1,21,23,25,27,29,31,-1,33,-1,-1,35,-1,37,39,-1,-1,-1,-1,41,-1,-1,-1,-1,43,-1,-1,45,47,-1,49,-1,-1,-1,-1,-1,-1,-1,-1,-1,-1],"loss_changes":[5.513298E0,5.4627705E-1,3.4857593E0,2.6889467E-1,2.164153E0,1.2608504E0,8.000839E-2,5.1800013E-2,1.1311367E0,2.1405458E-2,0E0,1.41663265E1,7.4933424E0,7.832241E-2,1.3549566E-1,6.9054365E-2,2.76258E-2,0E0,2.9842937E-1,0E0,0E0,6.687498E-1,0E0,9.581047E-1,6.949339E-1,0E0,0E0,0E0,0E0,6.313039E-2,0E0,0E0,0E0,0E0,1.0623468E0,0E0,0E0,6.6604745E-1,1.0436394E0,0E0,5.6138754E-2,0E0,0E0,0E0,0E0,0E0,0E0,0E0,0E0,0E0,0E0],"parents":[2147483647,0,0,1,1,2,2,3,3,4,4,5,5,6,6,7,7,8,8,9,9,11,11,12,12,13,13,14,14,15,15,16,16,18,18,21,21,23,23,24,24,29,29,34,34,37,37,38,38,40,40],"right_children":[2,4,6,8,10,12,14,16,18,20,-1,22,24,26,28,30,32,-1,34,-1,-1,36,-1,38,40,-1,-1,-1,-1,42,-1,-1,-1,-1,44,-1,-1,46,48,-1,50,-1,-1,-1,-1,-1,-1,-1,-1,-1,-1],"split_conditions":[4E-1,1E0,9.909636E-1,1.425383E1,4E-1,2E-1,9.9970007E-1,1.5713125E-2,5E-2,1.0157572E0,-6.566828E-2,5.288243E-1,-3.8080335E-2,2E-1,7E-1,3.5E-1,5.355247E-1,-5.439527E-2,3.5E-1,2.1197192E-2,6.1595727E-2,1.0490025E0,1.7714928E-1,8.377102E-1,1.218736E0,-3.3110143E-3,2.6142789E-2,8.577299E-3,6.19072E-2,9.9970007E-1,3.469595E-2,5.3850144E-2,1.3432837E-2,5.5927057E-2,8.8745815E-1,-1.4520437E-1,-4.3628924E-2,1.425383E1,8.5E-1,-1.3016096E-1,8.886627E-1,-5.539465E-3,1.9311316E-2,5.1086396E-2,-3.343932E-2,5.057619E-2,-3.558907E-3,3.21064E-2,-4.6640027E-2,-2.3073396E-2,-6.472056E-2],"split_indices":[10,4,2,1,11,13,0,28,12,0,0,25,19,13,11,10,22,0,10,0,0,0,0,2,18,0,0,0,0,0,0,0,0,0,0,0,0,1,10,0,0,0,0,0,0,0,0,0,0,0,0],"split_type":[0,0,0,0,0,0,0,0,0,0,0,0,0,0,0,0,0,0,0,0,0,0,0,0,0,0,0,0,0,0,0,0,0,0,0,0,0,0,0,0,0,0,0,0,0,0,0,0,0,0,0],"sum_hessian":[7.2E1,3.3E1,3.9E1,2.8E1,5E0,3.3E1,6E0,2.1E1,7E0,3E0,2E0,8E0,2.5E1,3E0,3E0,1.4E1,7E0,1E0,6E0,2E0,1E0,7E0,1E0,1.5E1,1E1,1E0,2E0,1E0,2E0,3E0,1.1E1,6E0,1E0,2E0,4E0,5E0,2E0,1E1,5E0,3E0,7E0,1E0,2E0,2E0,2E0,7E0,3E0,2E0,3E0,2E0,5E0],"tree_param":{"num_deleted":"0","num_feature":"53","num_nodes":"51","size_leaf_vector":"1"}},{"base_weights":[-9.504927E-3,2.6090163E-1,-2.3911287E-1,3.0846646E-1,-1.2478669E-2,-3.5676396E-1,3.6649433E-1,2.1420616E-1,4.2415135E-2,4.4095993E-1,-6.129039E-2,-6.491127E-1,-2.4184465E-1,1.6727233E-1,4.7409272E-1,-9.194803E-2,3.0824652E-1,1.9784039E-2,5.8515932E-2,-1.1509813E0,1.682918E-1,1.7085502E-1,-8.201492E-1,-3.1454563E-3,2.439995E-2,8.148432E-3,5.7780076E-2,-5.167551E-2,1.4344252E-2,4.2600965E-1,8.0227375E-2,-1.3310401E-1,-4.072033E-2,3.2367113E-1,-1.3778369E-1,-1.2039888E-1,-5.2571076E-1,2.353739E-2,6.054609E-2,2.2199262E-2,-1.355354E-2,4.6150774E-2,-3.2919855E-3,2.9965973E-2,-4.3142032E-2,-2.1535175E-2,-5.932718E-2],"categories":[],"categories_nodes":[],"categories_segments":[],"categories_sizes":[],"default_left":[0,0,0,0,0,0,0,0,0,0,0,0,0,0,0,0,0,0,0,0,0,0,0,0,0,0,0,0,0,0,0,0,0,0,0,0,0,0,0,0,0,0,0,0,0,0,0],"id":22,"left_children":[1,3,5,7,9,11,13,15,-1,17,-1,19,21,23,25,27,29,-1,-1,31,-1,33,35,-1,-1,-1,-1,-1,-1,37,39,-1,-1,41,43,-1,45,-1,-1,-1,-1,-1,-1,-1,-1,-1,-1],"loss_changes":[4.594772E0,4.45961E-1,2.980766E0,2.2537446E-1,1.9038019E0,9.852967E-1,7.074928E-2,5.46578E-1,0E0,2.446264E-2,0E0,1.2470364E1,6.3454456E0,6.86659E-2,1.15784824E-1,5.741025E-1,3.4175372E-1,0E0,0E0,5.2938557E-1,0E0,7.992361E-1,6.1023855E-1,0E0,0E0,0E0,0E0,0E0,0E0,1.6537869E-1,2.1361381E-1,0E0,0E0,5.5585694E-1,8.9997584E-1,0E0,3.9983273E-2,0E0,0E0,0E0,0E0,0E0,0E0,0E0,0E0,0E0,0E0],"parents":[2147483647,0,0,1,1,2,2,3,3,4,4,5,5,6,6,7,7,9,9,11,11,12,12,13,13,14,14,15,15,16,16,19,19,21,21,22,22,29,29,30,30,33,33,34,34,36,36],"right_children":[2,4,6,8,10,12,14,16,-1,18,-1,20,22,24,26,28,30,-1,-1,32,-1,34,36,-1,-1,-1,-1,-1,-1,38,40,-1,-1,42,44,-1,46,-1,-1,-1,-1,-1,-1,-1,-1,-1,-1],"split_conditions":[4E-1,1E0,9.909636E-1,-3.5879493E-2,4E-1,2E-1,9.9970007E-1,5E-2,4.2415135E-2,1.0157572E0,-6.129039E-2,5.288243E-1,-3.8080335E-2,2E-1,7E-1,8.8745815E-1,1E0,1.9784039E-2,5.8515932E-2,1.0490025E0,1.682918E-1,8.377102E-1,1.218736E0,-3.1454563E-3,2.439995E-2,8.148432E-3,5.7780076E-2,-5.167551E-2,1.4344252E-2,9.3129474E-1,1.0490025E0,-1.3310401E-1,-4.072033E-2,1.425383E1,8.5E-1,-1.2039888E-1,8.886627E-1,2.353739E-2,6.054609E-2,2.2199262E-2,-1.355354E-2,4.6150774E-2,-3.2919855E-3,2.9965973E-2,-4.3142032E-2,-2.1535175E-2,-5.932718E-2],"split_indices":[10,4,2,16,11,13,0,12,0,0,0,25,19,13,11,0,44,0,0,0,0,2,18,0,0,0,0,0,0,8,0,0,0,1,10,0,0,0,0,0,0,0,0,0,0,0,0],"split_type":[0,0,0,0,0,0,0,0,0,0,0,0,0,0,0,0,0,0,0,0,0,0,0,0,0,0,0,0,0,0,0,0,0,0,0,0,0,0,0,0,0,0,0,0,0,0,0],"sum_hessian":[7.2E1,3.3E1,3.9E1,2.8E1,5E0,3.3E1,6E0,1.7E1,1.1E1,3E0,2E0,8E0,2.5E1,3E0,3E0,4E0,1.3E1,2E0,1E0,7E0,1E0,1.5E1,1E1,1E0,2E0,1E0,2E0,1E0,3E0,8E0,5E0,5E0,2E0,1E1,5E0,3E0,7E0,5E0,3E0,3E0,2E0,7E0,3E0,2E0,3E0,2E0,5E0],"tree_param":{"num_deleted":"0","num_feature":"53","num_nodes":"47","size_leaf_vector":"1"}},{"base_weights":[-8.213347E-3,2.3818877E-1,-2.1744981E-1,3.260747E-1,1.0512832E-1,-3.2629678E-1,3.422996E-1,-2.392525E-1,4.021806E-1,3.8539457E-1,-5.324831E-1,-8.1526235E-2,-4.2488757E-1,1.5585876E-1,4.4316554E-1,1.3203859E-2,-4.9091734E-2,2.47648E-1,6.096393E-1,1.8762963E-1,5.189271E-1,-1.5112328E-2,-5.9004225E-2,3.3257674E-2,-3.656675E-1,-1.13830805E-1,-5.007535E-1,-2.9881955E-3,2.2773298E-2,7.7410224E-3,5.392806E-2,1.3754103E-1,3.3483148E-1,7.427044E-2,1.8465107E-2,2.4060602E-1,-3.8626194E-3,1.4514478E-2,6.6953205E-2,-1.3583823E-1,-6.268271E-2,5.4404765E-2,-5.7878196E-1,-9.3231805E-2,-3.235151E-1,2.816903E-2,-1.4855481E-2,4.927505E-2,1.3268435E-2,2.6674999E-2,6.8015098E-3,3.2449566E-2,-5.5089265E-2,-6.526563E-2,-1.7857945E-2,-4.230431E-2,-1.4933409E-2],"categories":[],"categories_nodes":[],"categories_segments":[],"categories_sizes":[],"default_left":[0,0,0,0,0,0,0,0,0,0,0,0,0,0,0,0,0,0,0,0,0,0,0,0,0,0,0,0,0,0,0,0,0,0,0,0,0,0,0,0,0,0,0,0,0,0,0,0,0,0,0,0,0,0,0,0,0],"id":23,"left_children":[1,3,5,7,9,11,13,15,17,19,21,23,25,27,29,-1,-1,31,33,35,37,-1,-1,-1,39,41,43,-1,-1,-1,-1,45,47,-1,-1,49,-1,-1,-1,51,-1,-1,53,-1,55,-1,-1,-1,-1,-1,-1,-1,-1,-1,-1,-1,-1],"loss_changes":[3.8154047E0,3.6332095E-1,2.5487719E0,9.5671797E-1,2.8857305E0,7.858527E-1,6.256747E-2,3.4514272E-1,4.260881E-1,1.931225E-1,2.0584583E-2,1.4159137E0,5.093651E-1,6.0204983E-2,9.887254E-2,0E0,0E0,6.914109E-2,2.5871658E-1,8.1211016E-2,2.4058175E-1,0E0,0E0,0E0,3.3500773E-1,2.1501732E0,1.1516876E0,0E0,0E0,0E0,0E0,3.3053005E-1,1.2615699E-1,0E0,0E0,4.4179857E-3,0E0,0E0,0E0,1.1340804E0,0E0,0E0,1.7077923E-3,0E0,1.9686353E-1,0E0,0E0,0E0,0E0,0E0,0E0,0E0,0E0,0E0,0E0,0E0,0E0],"parents":[2147483647,0,0,1,1,2,2,3,3,4,4,5,5,6,6,7,7,8,8,9,9,10,10,11,11,12,12,13,13,14,14,17,17,18,18,19,19,20,20,24,24,25,25,26,26,31,31,32,32,35,35,39,39,42,42,44,44],"right_children":[2,4,6,8,10,12,14,16,18,20,22,24,26,28,30,-1,-1,32,34,36,38,-1,-1,-1,40,42,44,-1,-1,-1,-1,46,48,-1,-1,50,-1,-1,-1,52,-1,-1,54,-1,56,-1,-1,-1,-1,-1,-1,-1,-1,-1,-1,-1,-1],"split_conditions":[4E-1,4E-1,9.909636E-1,8.8745815E-1,9.3333334E-1,-1.17946506E-1,9.9970007E-1,3.5E-1,8.833333E-1,7E-1,7E-1,8.5E-1,7E-1,2E-1,7E-1,1.3203859E-2,-4.9091734E-2,3.5E-1,8.8492537E-1,1.0490025E0,8.878007E-1,-1.5112328E-2,-5.9004225E-2,3.3257674E-2,7E-1,8.886627E-1,8.886627E-1,-2.9881955E-3,2.2773298E-2,7.7410224E-3,5.392806E-2,9.4285923E-1,1.0085711E0,7.427044E-2,1.8465107E-2,1.0243435E0,-3.8626194E-3,1.4514478E-2,6.6953205E-2,6E-1,-6.268271E-2,5.4404765E-2,1.0157572E0,-9.3231805E-2,9.3129474E-1,2.816903E-2,-1.4855481E-2,4.927505E-2,1.3268435E-2,2.6674999E-2,6.8015098E-3,3.2449566E-2,-5.5089265E-2,-6.526563E-2,-1.7857945E-2,-4.230431E-2,-1.4933409E-2],"split_indices":[10,11,2,0,4,19,0,10,4,11,11,10,11,13,11,0,0,10,2,0,8,0,0,0,11,0,0,0,0,0,0,2,0,0,0,0,0,0,0,4,0,0,0,0,8,0,0,0,0,0,0,0,0,0,0,0,0],"split_type":[0,0,0,0,0,0,0,0,0,0,0,0,0,0,0,0,0,0,0,0,0,0,0,0,0,0,0,0,0,0,0,0,0,0,0,0,0,0,0,0,0,0,0,0,0,0,0,0,0,0,0,0,0,0,0,0,0],"sum_hessian":[7.2E1,3.3E1,3.9E1,1.9E1,1.4E1,3.3E1,6E0,2E0,1.7E1,1E1,4E0,1E1,2.3E1,3E0,3E0,1E0,1E0,1.1E1,6E0,5E0,5E0,1E0,3E0,4E0,6E0,5E0,1.8E1,1E0,2E0,1E0,2E0,6E0,5E0,4E0,2E0,4E0,1E0,2E0,3E0,4E0,2E0,2E0,3E0,4E0,1.4E1,4E0,2E0,2E0,3E0,3E0,1E0,2E0,2E0,2E0,1E0,8E0,6E0],"tree_param":{"num_deleted":"0","num_feature":"53","num_nodes":"57","size_leaf_vector":"1"}},{"base_weights":[-7.1198256E-3,2.1936013E-1,-1.9944979E-1,3.001025E-1,9.707963E-2,-3.0046862E-1,3.197059E-1,-2.2728975E-1,3.7132886E-1,3.5695314E-1,-4.9405804E-1,-7.810675E-2,-3.8986495E-1,1.452192E-1,4.142661E-1,1.2543678E-2,-4.6637144E-2,2.2920461E-1,5.6192344E-1,1.7380214E-1,4.8061195E-1,-1.4356709E-2,-5.45789E-2,3.0597076E-2,-3.4128973E-1,-1.0723416E-1,-4.5859757E-1,-2.8387785E-3,2.1255082E-2,7.3539736E-3,5.0332833E-2,1.2568896E-1,3.117721E-1,6.832882E-2,1.7234104E-2,2.2324057E-1,-3.6695004E-3,1.3546817E-2,6.193168E-2,-1.2678242E-1,-5.8503866E-2,5.077779E-2,-5.4168463E-2,-8.577325E-2,-2.9497942E-1,2.5915528E-2,-1.3865121E-2,4.5990024E-2,1.22732995E-2,2.4674356E-2,6.46143E-3,3.028625E-2,-5.1416654E-2,-3.854393E-2,-1.3653398E-2],"categories":[],"categories_nodes":[],"categories_segments":[],"categories_sizes":[],"default_left":[0,0,0,0,0,0,0,0,0,0,0,0,0,0,0,0,0,0,0,0,0,0,0,0,0,0,0,0,0,0,0,0,0,0,0,0,0,0,0,0,0,0,0,0,0,0,0,0,0,0,0,0,0,0,0],"id":24,"left_children":[1,3,5,7,9,11,13,15,17,19,21,23,25,27,29,-1,-1,31,33,35,37,-1,-1,-1,39,41,43,-1,-1,-1,-1,45,47,-1,-1,49,-1,-1,-1,51,-1,-1,-1,-1,53,-1,-1,-1,-1,-1,-1,-1,-1,-1,-1],"loss_changes":[3.2235498E0,3.065555E-1,2.1938415E0,8.356838E-1,2.4806712E0,6.454122E-1,5.533707E-2,3.114915E-1,3.5879064E-1,1.6559923E-1,1.2298822E-2,1.216334E0,4.1704583E-1,5.279079E-2,8.4368706E-2,0E0,0E0,6.3378096E-2,2.1321249E-1,7.06317E-2,2.03341E-1,0E0,0E0,0E0,2.9182893E-1,1.8782089E0,9.8779535E-1,0E0,0E0,0E0,0E0,2.8289574E-1,1.1156708E-1,0E0,0E0,2.6978254E-3,0E0,0E0,0E0,9.879098E-1,0E0,0E0,0E0,0E0,1.6236866E-1,0E0,0E0,0E0,0E0,0E0,0E0,0E0,0E0,0E0,0E0],"parents":[2147483647,0,0,1,1,2,2,3,3,4,4,5,5,6,6,7,7,8,8,9,9,10,10,11,11,12,12,13,13,14,14,17,17,18,18,19,19,20,20,24,24,25,25,26,26,31,31,32,32,35,35,39,39,44,44],"right_children":[2,4,6,8,10,12,14,16,18,20,22,24,26,28,30,-1,-1,32,34,36,38,-1,-1,-1,40,42,44,-1,-1,-1,-1,46,48,-1,-1,50,-1,-1,-1,52,-1,-1,-1,-1,54,-1,-1,-1,-1,-1,-1,-1,-1,-1,-1],"split_conditions":[4E-1,4E-1,9.909636E-1,8.8745815E-1,9.3333334E-1,-1.17946506E-1,9.9970007E-1,3.5E-1,8.833333E-1,7E-1,7E-1,8.5E-1,7E-1,2E-1,7E-1,1.2543678E-2,-4.6637144E-2,3.5E-1,8.8492537E-1,1.0490025E0,8.878007E-1,-1.4356709E-2,-5.45789E-2,3.0597076E-2,7E-1,8.886627E-1,8.886627E-1,-2.8387785E-3,2.1255082E-2,7.3539736E-3,5.0332833E-2,9.4285923E-1,1.0085711E0,6.832882E-2,1.7234104E-2,1.0243435E0,-3.6695004E-3,1.3546817E-2,6.193168E-2,6E-1,-5.8503866E-2,5.077779E-2,-5.4168463E-2,-8.577325E-2,9.3129474E-1,2.5915528E-2,-1.3865121E-2,4.5990024E-2,1.22732995E-2,2.4674356E-2,6.46143E-3,3.028625E-2,-5.1416654E-2,-3.854393E-2,-1.3653398E-2],"split_indices":[10,11,2,0,4,19,0,10,4,11,11,10,11,13,11,0,0,10,2,0,8,0,0,0,11,0,0,0,0,0,0,2,0,0,0,0,0,0,0,4,0,0,0,0,8,0,0,0,0,0,0,0,0,0,0],"split_type":[0,0,0,0,0,0,0,0,0,0,0,0,0,0,0,0,0,0,0,0,0,0,0,0,0,0,0,0,0,0,0,0,0,0,0,0,0,0,0,0,0,0,0,0,0,0,0,0,0,0,0,0,0,0,0],"sum_hessian":[7.2E1,3.3E1,3.9E1,1.9E1,1.4E1,3.3E1,6E0,2E0,1.7E1,1E1,4E0,1E1,2.3E1,3E0,3E0,1E0,1E0,1.1E1,6E0,5E0,5E0,1E0,3E0,4E0,6E0,5E0,1.8E1,1E0,2E0,1E0,2E0,6E0,5E0,4E0,2E0,4E0,1E0,2E0,3E0,4E0,2E0,2E0,3E0,4E0,1.4E1,4E0,2E0,2E0,3E0,3E0,1E0,2E0,2E0,8E0,6E0],"tree_param":{"num_deleted":"0","num_feature":"53","num_nodes":"55","size_leaf_vector":"1"}},{"base_weights":[-5.8393446E-3,2.0200634E-1,-1.8236218E-1,2.7618158E-1,8.963893E-2,-2.760217E-1,2.9860714E-1,-2.1592529E-1,3.4285596E-1,3.3061644E-1,-4.5843935E-1,-4.93788E-1,-1.9002482E-1,1.3530135E-1,3.8726115E-1,1.1916495E-2,-4.430529E-2,2.1214385E-1,5.179544E-1,1.6099961E-1,4.451305E-1,-1.3638878E-2,-5.048548E-2,-9.5877784E-1,1.6130655E-1,1.6792724E-1,-6.934074E-1,-2.696848E-3,1.9838078E-2,6.986284E-3,4.6977296E-2,1.14841804E-1,2.903056E-1,6.286251E-2,1.608518E-2,2.0714359E-1,-3.4860135E-3,1.2643687E-2,5.728681E-2,-1.12201475E-1,-3.1271152E-2,3.110434E-1,-1.22440256E-1,-1.0791842E-1,-4.138431E-1,2.3842307E-2,-1.2940757E-2,4.2924024E-2,1.1352825E-2,2.2823775E-2,6.1383485E-3,-1.3021082E-3,4.341952E-2,2.371127E-2,-3.614949E-2,-4.831823E-2,-1.3721697E-2],"categories":[],"categories_nodes":[],"categories_segments":[],"categories_sizes":[],"default_left":[0,0,0,0,0,0,0,0,0,0,0,0,0,0,0,0,0,0,0,0,0,0,0,0,0,0,0,0,0,0,0,0,0,0,0,0,0,0,0,0,0,0,0,0,0,0,0,0,0,0,0,0,0,0,0,0,0],"id":25,"left_children":[1,3,5,7,9,11,13,15,17,19,21,23,25,27,29,-1,-1,31,33,35,37,-1,-1,39,-1,41,43,-1,-1,-1,-1,45,47,-1,-1,49,-1,-1,-1,-1,-1,51,53,-1,55,-1,-1,-1,-1,-1,-1,-1,-1,-1,-1,-1,-1],"loss_changes":[2.7151728E0,2.586292E-1,1.8843161E0,7.302495E-1,2.1326857E0,5.428934E-1,4.8947036E-2,2.8112108E-1,3.0209398E-1,1.4199269E-1,5.8840513E-3,1.0363562E1,4.8013E0,4.6293586E-2,7.1936786E-2,0E0,0E0,5.792439E-2,1.7553008E-1,6.1447546E-2,1.7182338E-1,0E0,0E0,4.9282837E-1,0E0,7.029847E-1,7.3973036E-1,0E0,0E0,0E0,0E0,2.4214628E-1,9.86321E-2,0E0,0E0,1.3633966E-3,0E0,0E0,0E0,0E0,0E0,4.446541E-1,6.0143185E-1,0E0,8.7147474E-2,0E0,0E0,0E0,0E0,0E0,0E0,0E0,0E0,0E0,0E0,0E0,0E0],"parents":[2147483647,0,0,1,1,2,2,3,3,4,4,5,5,6,6,7,7,8,8,9,9,10,10,11,11,12,12,13,13,14,14,17,17,18,18,19,19,20,20,23,23,25,25,26,26,31,31,32,32,35,35,41,41,42,42,44,44],"right_children":[2,4,6,8,10,12,14,16,18,20,22,24,26,28,30,-1,-1,32,34,36,38,-1,-1,40,-1,42,44,-1,-1,-1,-1,46,48,-1,-1,50,-1,-1,-1,-1,-1,52,54,-1,56,-1,-1,-1,-1,-1,-1,-1,-1,-1,-1,-1,-1],"split_conditions":[4E-1,4E-1,9.909636E-1,8.8745815E-1,9.3333334E-1,2E-1,9.9970007E-1,3.5E-1,8.833333E-1,7E-1,7E-1,5.288243E-1,-3.8080335E-2,2E-1,7E-1,1.1916495E-2,-4.430529E-2,3.5E-1,8.8492537E-1,1.0490025E0,8.878007E-1,-1.3638878E-2,-5.048548E-2,1.0490025E0,1.6130655E-1,8.377102E-1,1.218736E0,-2.696848E-3,1.9838078E-2,6.986284E-3,4.6977296E-2,9.4285923E-1,1.0085711E0,6.286251E-2,1.608518E-2,1.0243435E0,-3.4860135E-3,1.2643687E-2,5.728681E-2,-1.12201475E-1,-3.1271152E-2,2.5E-1,8.5E-1,-1.0791842E-1,9.5E-1,2.3842307E-2,-1.2940757E-2,4.2924024E-2,1.1352825E-2,2.2823775E-2,6.1383485E-3,-1.3021082E-3,4.341952E-2,2.371127E-2,-3.614949E-2,-4.831823E-2,-1.3721697E-2],"split_indices":[10,11,2,0,4,13,0,10,4,11,11,25,19,13,11,0,0,10,2,0,8,0,0,0,0,2,18,0,0,0,0,2,0,0,0,0,0,0,0,0,0,13,10,0,11,0,0,0,0,0,0,0,0,0,0,0,0],"split_type":[0,0,0,0,0,0,0,0,0,0,0,0,0,0,0,0,0,0,0,0,0,0,0,0,0,0,0,0,0,0,0,0,0,0,0,0,0,0,0,0,0,0,0,0,0,0,0,0,0,0,0,0,0,0,0,0,0],"sum_hessian":[7.2E1,3.3E1,3.9E1,1.9E1,1.4E1,3.3E1,6E0,2E0,1.7E1,1E1,4E0,8E0,2.5E1,3E0,3E0,1E0,1E0,1.1E1,6E0,5E0,5E0,1E0,3E0,7E0,1E0,1.5E1,1E1,1E0,2E0,1E0,2E0,6E0,5E0,4E0,2E0,4E0,1E0,2E0,3E0,5E0,2E0,1E1,5E0,3E0,7E0,4E0,2E0,2E0,3E0,3E0,1E0,3E0,7E0,2E0,3E0,5E0,2E0],"tree_param":{"num_deleted":"0","num_feature":"53","num_nodes":"57","size_leaf_vector":"1"}}]},"name":"gbtree"},"learner_model_param":{"base_score":"[6.1944447E0]","boost_from_average":"1","num_class":"0","num_feature":"53","num_target":"1"},"objective":{"name":"reg:squarederror","reg_loss_param":{"scale_pos_weight":"1"}}},"version":[3,1,1]}